{"learner":{"attributes":{"scikit_learn":"{\"_estimator_type\": \"classifier\"}"},"feature_names":["employment_status","political","marital_status","type","upgrade","gcnt"],"feature_types":["int","int","int","int","int","int"],"gradient_booster":{"model":{"gbtree_model_param":{"num_parallel_tree":"1","num_trees":"200"},"iteration_indptr":[0,1,2,3,4,5,6,7,8,9,10,11,12,13,14,15,16,17,18,19,20,21,22,23,24,25,26,27,28,29,30,31,32,33,34,35,36,37,38,39,40,41,42,43,44,45,46,47,48,49,50,51,52,53,54,55,56,57,58,59,60,61,62,63,64,65,66,67,68,69,70,71,72,73,74,75,76,77,78,79,80,81,82,83,84,85,86,87,88,89,90,91,92,93,94,95,96,97,98,99,100,101,102,103,104,105,106,107,108,109,110,111,112,113,114,115,116,117,118,119,120,121,122,123,124,125,126,127,128,129,130,131,132,133,134,135,136,137,138,139,140,141,142,143,144,145,146,147,148,149,150,151,152,153,154,155,156,157,158,159,160,161,162,163,164,165,166,167,168,169,170,171,172,173,174,175,176,177,178,179,180,181,182,183,184,185,186,187,188,189,190,191,192,193,194,195,196,197,198,199,200],"tree_info":[0,0,0,0,0,0,0,0,0,0,0,0,0,0,0,0,0,0,0,0,0,0,0,0,0,0,0,0,0,0,0,0,0,0,0,0,0,0,0,0,0,0,0,0,0,0,0,0,0,0,0,0,0,0,0,0,0,0,0,0,0,0,0,0,0,0,0,0,0,0,0,0,0,0,0,0,0,0,0,0,0,0,0,0,0,0,0,0,0,0,0,0,0,0,0,0,0,0,0,0,0,0,0,0,0,0,0,0,0,0,0,0,0,0,0,0,0,0,0,0,0,0,0,0,0,0,0,0,0,0,0,0,0,0,0,0,0,0,0,0,0,0,0,0,0,0,0,0,0,0,0,0,0,0,0,0,0,0,0,0,0,0,0,0,0,0,0,0,0,0,0,0,0,0,0,0,0,0,0,0,0,0,0,0,0,0,0,0,0,0,0,0,0,0,0,0,0,0,0,0],"trees":[{"base_weights":[2.0882148E-4,5.359266E-1,-6.8932945E-1,1.9523318E-1,9.7712076E-1,-9.6856636E-1,-1.8799691E-1,4.4278745E-2,-4.473528E-2,1.1236234E0,2.6277986E-1,-7.0481814E-2,-1.4543463E-1,1.1095516E-1,-1.0850749E0,1.2953493E-1,5.5863794E-2,4.4414897E-2,-2.124608E-2,3.5163444E-2,-4.0089447E-2,-9.5087975E-2,-1.3118486E-1],"categories":[],"categories_nodes":[],"categories_segments":[],"categories_sizes":[],"default_left":[0,0,0,0,0,0,0,0,0,0,0,0,0,0,0,0,0,0,0,0,0,0,0],"id":0,"left_children":[1,3,5,7,9,11,13,-1,-1,15,17,-1,-1,19,21,-1,-1,-1,-1,-1,-1,-1,-1],"loss_changes":[1.3787979E3,3.155503E2,2.2827997E2,1.8894608E2,9.546588E1,1.3323877E2,1.5702316E2,0E0,0E0,7.2917114E1,1.362947E1,0E0,0E0,5.4311726E1,3.2056885E0,0E0,0E0,0E0,0E0,0E0,0E0,0E0,0E0],"parents":[2147483647,0,0,1,1,2,2,3,3,4,4,5,5,6,6,9,9,10,10,13,13,14,14],"right_children":[2,4,6,8,10,12,14,-1,-1,16,18,-1,-1,20,22,-1,-1,-1,-1,-1,-1,-1,-1],"split_conditions":[1E0,1E0,1E0,1E0,2E0,1E0,2E0,4.4278745E-2,-4.473528E-2,1E0,1E0,-7.0481814E-2,-1.4543463E-1,1E0,1E0,1.2953493E-1,5.5863794E-2,4.4414897E-2,-2.124608E-2,3.5163444E-2,-4.0089447E-2,-9.5087975E-2,-1.3118486E-1],"split_indices":[1,3,3,0,3,0,3,0,0,0,0,0,0,0,0,0,0,0,0,0,0,0,0],"split_type":[0,0,0,0,0,0,0,0,0,0,0,0,0,0,0,0,0,0,0,0,0,0,0],"sum_hessian":[3.7305544E3,2.0995723E3,1.6309822E3,1.1855354E3,9.1403687E2,1.0469243E3,5.8405786E2,8.5605414E2,3.294813E2,7.5800604E2,1.5603079E2,6.8011505E2,3.6680923E2,4.3872772E2,1.4533011E2,5.803251E2,1.77681E2,1.1297923E2,4.305156E1,2.9862354E2,1.401042E2,9.456412E1,5.0766E1],"tree_param":{"num_deleted":"0","num_feature":"6","num_nodes":"23","size_leaf_vector":"1"}},{"base_weights":[3.583629E-4,-4.096668E-1,1.0643746E0,-7.0847297E-1,7.2365604E-2,7.742312E-1,1.5041811E0,-4.7493654E-1,-1.1647344E0,3.749105E-1,-1.2489353E0,4.816504E-1,1.1500379E0,1.3501074E0,1.6780159E-1,-6.4435296E-2,-2.1700395E-2,-1.3149115E-1,-9.023055E-2,6.114679E-1,-2.1778856E-1,-1.5328562E0,-8.487917E-1,6.875166E-2,-1.0864722E-2,1.2647531E0,6.922735E-2,1.4288397E-1,1.0328668E0,4.031397E-2,8.890215E-2,-4.2447142E-2,1.055116E-2,-1.3676684E-1,-1.7957418E-1,-7.179989E-2,-1.0695942E-1,1.35429E-1,9.511495E-2,8.00007E-2,1.528171E-1],"categories":[],"categories_nodes":[],"categories_segments":[],"categories_sizes":[],"default_left":[0,0,0,0,0,0,0,0,0,0,0,0,0,0,0,0,0,0,0,0,0,0,0,0,0,0,0,0,0,0,0,0,0,0,0,0,0,0,0,0,0],"id":1,"left_children":[1,3,5,7,9,11,13,15,17,19,21,23,25,27,-1,-1,-1,-1,-1,29,31,33,35,-1,-1,37,-1,-1,39,-1,-1,-1,-1,-1,-1,-1,-1,-1,-1,-1,-1],"loss_changes":[1.6255767E3,3.8744543E2,1.3109412E2,1.7637415E2,4.122716E2,6.833655E1,8.740051E0,4.792723E1,2.094159E1,1.1776488E2,2.0530182E1,4.309339E1,1.3488831E1,4.092987E0,0E0,0E0,0E0,0E0,0E0,3.432997E1,1.6086384E1,2.3713684E0,1.6000633E0,0E0,0E0,4.8196106E0,0E0,0E0,4.306591E0,0E0,0E0,0E0,0E0,0E0,0E0,0E0,0E0,0E0,0E0,0E0,0E0],"parents":[2147483647,0,0,1,1,2,2,3,3,4,4,5,5,6,6,7,7,8,8,9,9,10,10,11,11,12,12,13,13,19,19,20,20,21,21,22,22,25,25,28,28],"right_children":[2,4,6,8,10,12,14,16,18,20,22,24,26,28,-1,-1,-1,-1,-1,30,32,34,36,-1,-1,38,-1,-1,40,-1,-1,-1,-1,-1,-1,-1,-1,-1,-1,-1,-1],"split_conditions":[3E0,1E0,4E0,1E0,2E0,1E0,1E0,2E0,2E0,1E0,2E0,1E0,2E0,1E0,1.6780159E-1,-6.4435296E-2,-2.1700395E-2,-1.3149115E-1,-9.023055E-2,2E0,2E0,1E0,1E0,6.875166E-2,-1.0864722E-2,1E0,6.922735E-2,1.4288397E-1,5E0,4.031397E-2,8.890215E-2,-4.2447142E-2,1.055116E-2,-1.3676684E-1,-1.7957418E-1,-7.179989E-2,-1.0695942E-1,1.35429E-1,9.511495E-2,8.00007E-2,1.528171E-1],"split_indices":[5,3,5,0,3,3,3,5,5,0,5,0,3,0,0,0,0,0,0,5,5,0,0,0,0,0,0,0,5,0,0,0,0,0,0,0,0,0,0,0,0],"split_type":[0,0,0,0,0,0,0,0,0,0,0,0,0,0,0,0,0,0,0,0,0,0,0,0,0,0,0,0,0,0,0,0,0,0,0,0,0,0,0,0,0],"sum_hessian":[3.7240508E3,2.688598E3,1.0354528E3,1.6594531E3,1.0291449E3,6.2554004E2,4.0991272E2,1.0989824E3,5.6047076E2,8.3798376E2,1.911611E2,3.529982E2,2.725418E2,2.219553E2,1.8795741E2,6.6240234E2,4.3658002E2,3.5392416E2,2.0654657E2,5.989141E2,2.3906964E2,1.1016385E2,8.099725E1,2.616004E2,9.1397804E1,2.1651941E2,5.6022404E1,1.7501613E2,4.693918E1,3.4352277E2,2.5539139E2,1.4564633E2,9.34233E1,7.146215E1,3.8701694E1,5.3536533E1,2.746072E1,1.6584935E2,5.067006E1,3.370735E1,1.3231825E1],"tree_param":{"num_deleted":"0","num_feature":"6","num_nodes":"41","size_leaf_vector":"1"}},{"base_weights":[6.613027E-4,5.494841E-1,-7.579712E-1,2.1829425E-1,1.2583469E0,-1.0765896E0,3.892782E-1,-5.383573E-2,6.096822E-1,1.0791396E0,1.50569E0,-1.2718312E0,-7.0786273E-1,2.045423E-2,1.0690475E0,-2.245993E-2,1.9961255E-2,8.326778E-1,-6.806202E-1,8.991618E-2,1.2919017E0,1.397144E-1,1.6230236E-1,-1.3741869E-1,-1.094298E-1,-4.503326E-1,-1.4968045E0,-3.3622697E-2,5.533421E-1,8.268288E-1,1.3403104E-1,6.723413E-2,1.0407566E-1,-1.0403178E-1,-2.493898E-2,1.365608E-1,9.81742E-2,-6.5142356E-2,-1.3219634E-2,-1.619156E-1,-1.2709251E-1,7.267364E-2,-1.0818346E-2,6.604642E-2,1.2026993E-1],"categories":[],"categories_nodes":[],"categories_segments":[],"categories_sizes":[],"default_left":[0,0,0,0,0,0,0,0,0,0,0,0,0,0,0,0,0,0,0,0,0,0,0,0,0,0,0,0,0,0,0,0,0,0,0,0,0,0,0,0,0,0,0,0,0],"id":2,"left_children":[1,3,5,7,9,11,13,15,17,19,21,23,25,27,29,-1,-1,31,33,-1,35,-1,-1,-1,-1,37,39,-1,41,43,-1,-1,-1,-1,-1,-1,-1,-1,-1,-1,-1,-1,-1,-1,-1],"loss_changes":[1.5449534E3,5.0519537E2,5.6977765E2,1.5645735E2,2.8755981E1,8.687891E1,8.5043945E1,3.7578476E1,1.7390367E2,1.4192596E1,1.3676758E0,1.2959717E1,8.554817E1,4.2186428E1,6.731735E0,0E0,0E0,1.6452118E1,1.3595531E1,0E0,2.8076477E0,0E0,0E0,0E0,0E0,2.0473091E1,8.1651306E-1,0E0,1.028491E1,3.3105545E0,0E0,0E0,0E0,0E0,0E0,0E0,0E0,0E0,0E0,0E0,0E0,0E0,0E0,0E0,0E0],"parents":[2147483647,0,0,1,1,2,2,3,3,4,4,5,5,6,6,7,7,8,8,9,9,10,10,11,11,12,12,13,13,14,14,17,17,18,18,20,20,25,25,26,26,28,28,29,29],"right_children":[2,4,6,8,10,12,14,16,18,20,22,24,26,28,30,-1,-1,32,34,-1,36,-1,-1,-1,-1,38,40,-1,42,44,-1,-1,-1,-1,-1,-1,-1,-1,-1,-1,-1,-1,-1,-1,-1],"split_conditions":[1E0,3E0,3E0,1E0,4E0,1E0,4E0,2E0,2E0,1E0,1E0,2E0,2E0,1E0,1E0,-2.245993E-2,1.9961255E-2,2E0,2E0,8.991618E-2,2E0,1.397144E-1,1.6230236E-1,-1.3741869E-1,-1.094298E-1,2E0,2E0,-3.3622697E-2,2E0,5E0,1.3403104E-1,6.723413E-2,1.0407566E-1,-1.0403178E-1,-2.493898E-2,1.365608E-1,9.81742E-2,-6.5142356E-2,-1.3219634E-2,-1.619156E-1,-1.2709251E-1,7.267364E-2,-1.0818346E-2,6.604642E-2,1.2026993E-1],"split_indices":[2,5,5,3,5,3,5,5,3,3,3,5,3,3,3,0,0,5,5,0,3,0,0,0,0,5,5,0,3,5,0,0,0,0,0,0,0,0,0,0,0,0,0,0,0],"split_type":[0,0,0,0,0,0,0,0,0,0,0,0,0,0,0,0,0,0,0,0,0,0,0,0,0,0,0,0,0,0,0,0,0,0,0,0,0,0,0,0,0,0,0,0,0],"sum_hessian":[3.708665E3,2.1520605E3,1.5566045E3,1.4676593E3,6.844013E2,1.2183119E3,3.3829257E2,8.662338E2,6.014254E2,3.999725E2,2.8442883E2,7.9494037E2,4.233715E2,2.1997197E2,1.183206E2,5.176054E2,3.4862848E2,5.1310333E2,8.832206E1,2.1951144E2,1.8046106E2,1.5445187E2,1.2997696E2,4.9995416E2,2.949862E2,3.2036667E2,1.0300482E2,1.319932E2,8.797878E1,6.464513E1,5.3675476E1,2.9218747E2,2.2091588E2,4.7384933E1,4.0937126E1,1.4306116E2,3.7399902E1,1.9565033E2,1.2471633E2,6.281288E1,4.0191944E1,6.962945E1,1.8349339E1,4.672241E1,1.7922716E1],"tree_param":{"num_deleted":"0","num_feature":"6","num_nodes":"45","size_leaf_vector":"1"}},{"base_weights":[1.0424204E-3,2.1981734E-1,-5.1175505E-1,-3.0052325E-2,5.8237875E-1,-7.541657E-1,-9.724287E-2,-2.8710575E-3,-6.617218E-2,7.553603E-2,-1.3397624E-1,-7.513606E-2,-1.2331154E-1,-2.1653263E-1,1.187489E-1,-1.2668632E-1,1.4151631E-1,5.595534E-3,-1.6131869E-1],"categories":[],"categories_nodes":[],"categories_segments":[],"categories_sizes":[],"default_left":[0,0,0,0,0,0,0,0,0,0,0,0,0,0,0,0,0,0,0],"id":3,"left_children":[1,3,5,7,9,11,13,-1,-1,-1,15,-1,-1,17,-1,-1,-1,-1,-1],"loss_changes":[4.1334644E2,2.3398413E2,1.1064011E2,1.2776276E0,1.3067722E2,7.385254E-3,6.2744007E1,0E0,0E0,0E0,3.629879E2,0E0,0E0,1.4239899E2,0E0,0E0,0E0,0E0,0E0],"parents":[2147483647,0,0,1,1,2,2,3,3,4,4,5,5,6,6,10,10,13,13],"right_children":[2,4,6,8,10,12,14,-1,-1,-1,16,-1,-1,18,-1,-1,-1,-1,-1],"split_conditions":[1E0,1E0,1E0,2E0,2E0,2E0,2E0,-2.8710575E-3,-6.617218E-2,7.553603E-2,2E0,-7.513606E-2,-1.2331154E-1,2E0,1.187489E-1,-1.2668632E-1,1.4151631E-1,5.595534E-3,-1.6131869E-1],"split_indices":[0,3,3,4,3,4,4,0,0,0,4,0,0,3,0,0,0,0,0],"split_type":[0,0,0,0,0,0,0,0,0,0,0,0,0,0,0,0,0,0,0],"sum_hessian":[3.6824314E3,2.5816099E3,1.1008215E3,1.5288654E3,1.0527445E3,6.9409106E2,4.0673047E2,1.526668E3,2.1973934E0,8.479353E2,2.048092E2,6.926033E2,1.4878043E0,3.729343E2,3.3796192E1,1.1840312E2,8.640609E1,3.1285587E2,6.007841E1],"tree_param":{"num_deleted":"0","num_feature":"6","num_nodes":"19","size_leaf_vector":"1"}},{"base_weights":[9.897976E-4,-3.287414E-1,8.796671E-1,1.475341E-1,-8.6937463E-1,1.1585819E0,3.9329642E-1,3.359369E-1,-3.235437E-1,-7.2232395E-1,-1.1265109E0,9.795756E-1,1.411796E-1,8.128545E-2,9.550487E-1,1.8347194E-2,5.428818E-2,-5.0583508E-2,-4.585867E-3,-8.512058E-2,-5.16311E-2,-1.2216778E-1,-9.533494E-2,1.07306354E-1,6.6754244E-2,2.3464916E-2,-2.9469687E-2,8.277189E-1,1.2416773E-1,9.466721E-2,4.5439202E-2],"categories":[],"categories_nodes":[],"categories_segments":[],"categories_sizes":[],"default_left":[0,0,0,0,0,0,0,0,0,0,0,0,0,0,0,0,0,0,0,0,0,0,0,0,0,0,0,0,0,0,0],"id":4,"left_children":[1,3,5,7,9,11,13,15,17,19,21,23,-1,25,27,-1,-1,-1,-1,-1,-1,-1,-1,-1,-1,-1,-1,29,-1,-1,-1],"loss_changes":[1.0612056E3,6.859118E2,1.3512415E2,1.2585317E2,4.6358093E1,2.7384644E1,6.403153E1,3.184774E1,2.0491215E1,2.0707245E1,6.2854004E0,1.0225433E1,0E0,1.3691765E1,3.735695E0,0E0,0E0,0E0,0E0,0E0,0E0,0E0,0E0,0E0,0E0,0E0,0E0,3.7163315E0,0E0,0E0,0E0],"parents":[2147483647,0,0,1,1,2,2,3,3,4,4,5,5,6,6,7,7,8,8,9,9,10,10,11,11,13,13,14,14,27,27],"right_children":[2,4,6,8,10,12,14,16,18,20,22,24,-1,26,28,-1,-1,-1,-1,-1,-1,-1,-1,-1,-1,-1,-1,30,-1,-1,-1],"split_conditions":[3E0,1E0,1E0,1E0,1E0,4E0,4E0,2E0,2E0,2E0,2E0,1E0,1.411796E-1,1E0,5E0,1.8347194E-2,5.428818E-2,-5.0583508E-2,-4.585867E-3,-8.512058E-2,-5.16311E-2,-1.2216778E-1,-9.533494E-2,1.07306354E-1,6.6754244E-2,2.3464916E-2,-2.9469687E-2,1E0,1.2416773E-1,9.466721E-2,4.5439202E-2],"split_indices":[5,1,1,0,0,5,5,5,5,5,5,0,0,0,5,0,0,0,0,0,0,0,0,0,0,0,0,0,0,0,0],"split_type":[0,0,0,0,0,0,0,0,0,0,0,0,0,0,0,0,0,0,0,0,0,0,0,0,0,0,0,0,0,0,0],"sum_hessian":[3.6607754E3,2.6623367E3,9.984387E2,1.4158014E3,1.2465353E3,6.3367096E2,3.6476776E2,1.01153503E3,4.0426636E2,7.954459E2,4.5108932E2,3.7408524E2,2.5958572E2,2.3524925E2,1.295185E2,5.8351874E2,4.2801627E2,2.4355719E2,1.6070915E2,4.8739777E2,3.0804816E2,2.8719574E2,1.638936E2,2.859678E2,8.811743E1,1.6735915E2,6.7890114E1,9.2371735E1,3.7146763E1,6.888662E1,2.3485117E1],"tree_param":{"num_deleted":"0","num_feature":"6","num_nodes":"31","size_leaf_vector":"1"}},{"base_weights":[1.2200829E-3,-2.9739058E-1,8.103246E-1,-1.173417E-1,-6.7933303E-1,5.787036E-1,1.1777713E0,-2.5953526E-2,9.002661E-2,-8.1479214E-2,-4.574333E-1,7.008702E-1,2.2591178E-1,1.110181E0,1.3326898E-1,6.7314217E-3,9.157567E-2,-4.8539255E-2,3.3046667E-2,6.631143E-2,1.22238375E-1,1.4987725E-2,1.085447E-1,1.17519334E-1,8.671396E-2],"categories":[],"categories_nodes":[],"categories_segments":[],"categories_sizes":[],"default_left":[0,0,0,0,0,0,0,0,0,0,0,0,0,0,0,0,0,0,0,0,0,0,0,0,0],"id":5,"left_children":[1,3,5,7,9,11,13,-1,15,-1,17,19,21,23,-1,-1,-1,-1,-1,-1,-1,-1,-1,-1,-1],"loss_changes":[8.771372E2,1.8227748E2,8.2611145E1,5.3199448E1,2.5157501E1,2.579805E1,2.472412E0,0E0,1.3710145E1,0E0,7.3029556E0,7.9882812E0,1.0057583E1,3.2275696E0,0E0,0E0,0E0,0E0,0E0,0E0,0E0,0E0,0E0,0E0,0E0],"parents":[2147483647,0,0,1,1,2,2,3,3,4,4,5,5,6,6,8,8,10,10,11,11,12,12,13,13],"right_children":[2,4,6,8,10,12,14,-1,16,-1,18,20,22,24,-1,-1,-1,-1,-1,-1,-1,-1,-1,-1,-1],"split_conditions":[3E0,1E0,4E0,2E0,2E0,1E0,5E0,-2.5953526E-2,2E0,-8.1479214E-2,2E0,2E0,2E0,1E0,1.3326898E-1,6.7314217E-3,9.157567E-2,-4.8539255E-2,3.3046667E-2,6.631143E-2,1.22238375E-1,1.4987725E-2,1.085447E-1,1.17519334E-1,8.671396E-2],"split_indices":[5,0,5,5,5,0,5,0,4,0,4,4,4,0,0,0,0,0,0,0,0,0,0,0,0],"split_type":[0,0,0,0,0,0,0,0,0,0,0,0,0,0,0,0,0,0,0,0,0,0,0,0,0],"sum_hessian":[3.6284287E3,2.6507625E3,9.776663E2,1.8024084E3,8.4835394E2,6.0124493E2,3.764214E2,1.0690818E3,7.333266E2,5.2512085E2,3.232331E2,4.458626E2,1.5538234E2,2.677635E2,1.086579E2,7.147484E2,1.8578234E1,3.125268E2,1.0706301E1,4.178808E2,2.7981802E1,1.4383322E2,1.1549123E1,2.0822818E2,5.9535305E1],"tree_param":{"num_deleted":"0","num_feature":"6","num_nodes":"25","size_leaf_vector":"1"}},{"base_weights":[1.5090329E-3,4.897658E-1,-6.6734505E-1,2.9029354E-1,7.683068E-1,-8.688278E-1,-3.0938393E-1,2.9504815E-2,-1.619352E-1,8.96489E-2,1.7188199E-1,-8.6984634E-2,-1.0699766E-2,-1.3496958E-2,-8.68077E-1,-9.7474895E-2,1.2827793E-1,-1.4220397E-1,7.872913E-2],"categories":[],"categories_nodes":[],"categories_segments":[],"categories_sizes":[],"default_left":[0,0,0,0,0,0,0,0,0,0,0,0,0,0,0,0,0,0,0],"id":6,"left_children":[1,3,5,7,9,11,13,-1,-1,-1,15,-1,-1,-1,17,-1,-1,-1,-1],"loss_changes":[1.1763541E3,1.1546442E2,1.09355286E2,1.1508499E1,6.622583E1,6.611328E-1,5.337613E1,0E0,0E0,0E0,1.9847472E2,0E0,0E0,0E0,1.2071677E2,0E0,0E0,0E0,0E0],"parents":[2147483647,0,0,1,1,2,2,3,3,4,4,5,5,6,6,10,10,14,14],"right_children":[2,4,6,8,10,12,14,-1,-1,-1,16,-1,-1,-1,18,-1,-1,-1,-1],"split_conditions":[1E0,1E0,1E0,2E0,2E0,2E0,2E0,2.9504815E-2,-1.619352E-1,8.96489E-2,2E0,-8.6984634E-2,-1.0699766E-2,-1.3496958E-2,2E0,-9.7474895E-2,1.2827793E-1,-1.4220397E-1,7.872913E-2],"split_indices":[2,3,3,4,3,4,3,0,0,0,4,0,0,0,4,0,0,0,0],"split_type":[0,0,0,0,0,0,0,0,0,0,0,0,0,0,0,0,0,0,0],"sum_hessian":[3.6001216E3,2.081162E3,1.5189597E3,1.2138948E3,8.672672E2,9.7099567E2,5.47964E2,1.2117234E3,2.1714177E0,7.1343445E2,1.538328E2,9.695576E2,1.4380478E0,4.185435E2,1.2942049E2,7.575922E1,7.807357E1,9.707549E1,3.2344997E1],"tree_param":{"num_deleted":"0","num_feature":"6","num_nodes":"19","size_leaf_vector":"1"}},{"base_weights":[1.4348432E-3,4.4576216E-1,-6.046444E-1,2.1063761E-1,9.8714757E-1,-8.3848757E-1,2.515926E-1,3.851331E-1,-2.0116861E-1,8.4114236E-1,1.2020234E-1,-7.329357E-1,-1.0386577E0,-4.0317763E-2,8.223531E-1,2.707535E-2,5.41673E-2,-3.510739E-2,2.5909862E-3,9.560521E-2,5.022619E-2,-8.372971E-2,-5.6625534E-2,-1.1134376E-1,-9.034394E-2,6.1835963E-3,-3.144717E-2,9.2748773E-1,4.2121598E-1,8.095954E-2,1.1925589E-1,3.1070461E-2,6.488695E-2],"categories":[],"categories_nodes":[],"categories_segments":[],"categories_sizes":[],"default_left":[0,0,0,0,0,0,0,0,0,0,0,0,0,0,0,0,0,0,0,0,0,0,0,0,0,0,0,0,0,0,0,0,0],"id":7,"left_children":[1,3,5,7,9,11,13,15,17,19,-1,21,23,25,27,-1,-1,-1,-1,-1,-1,-1,-1,-1,-1,-1,-1,29,31,-1,-1,-1,-1],"loss_changes":[9.6182446E2,2.6211694E2,3.0271265E2,1.0341444E2,1.855719E1,2.4316772E1,5.4159454E1,1.7944717E1,1.4600616E1,1.4111328E1,0E0,1.3103424E1,3.1135864E0,6.065669E0,4.2473373E0,0E0,0E0,0E0,0E0,0E0,0E0,0E0,0E0,0E0,0E0,0E0,0E0,1.7315292E0,4.1904593E-1,0E0,0E0,0E0,0E0],"parents":[2147483647,0,0,1,1,2,2,3,3,4,4,5,5,6,6,7,7,8,8,9,9,11,11,12,12,13,13,14,14,27,27,28,28],"right_children":[2,4,6,8,10,12,14,16,18,20,-1,22,24,26,28,-1,-1,-1,-1,-1,-1,-1,-1,-1,-1,-1,-1,30,32,-1,-1,-1,-1],"split_conditions":[1E0,3E0,3E0,1E0,4E0,1E0,4E0,2E0,2E0,1E0,1.2020234E-1,2E0,2E0,1E0,1E0,2.707535E-2,5.41673E-2,-3.510739E-2,2.5909862E-3,9.560521E-2,5.022619E-2,-8.372971E-2,-5.6625534E-2,-1.1134376E-1,-9.034394E-2,6.1835963E-3,-3.144717E-2,5E0,5E0,8.095954E-2,1.1925589E-1,3.1070461E-2,6.488695E-2],"split_indices":[2,5,5,0,5,0,5,5,5,0,0,5,5,0,0,0,0,0,0,0,0,0,0,0,0,0,0,5,5,0,0,0,0],"split_type":[0,0,0,0,0,0,0,0,0,0,0,0,0,0,0,0,0,0,0,0,0,0,0,0,0,0,0,0,0,0,0,0,0],"sum_hessian":[3.5696035E3,2.059796E3,1.5098077E3,1.4370652E3,6.227306E2,1.1859413E3,3.2386646E2,1.00941046E3,4.2765475E2,3.7371255E2,2.4901804E2,7.79542E2,4.0639932E2,2.148915E2,1.0897497E2,5.848244E2,4.245861E2,2.5727155E2,1.703832E2,2.7772028E2,9.5992294E1,4.7691446E2,3.026275E2,2.570233E2,1.4937605E2,1.5712054E2,5.7770947E1,8.530509E1,2.3669882E1,6.1850773E1,2.3454317E1,1.7526627E1,6.1432543E0],"tree_param":{"num_deleted":"0","num_feature":"6","num_nodes":"33","size_leaf_vector":"1"}},{"base_weights":[1.5716956E-3,4.0717036E-1,-5.503825E-1,5.5208826E-1,3.966397E-2,-7.357046E-1,-2.2466089E-1,4.036962E-2,7.5803155E-1,-2.1932006E-2,4.4396564E-1,-6.4945824E-2,-9.1099374E-2,-6.39052E-2,-7.6693356E-2,8.702427E-2,2.1698806E-2,5.849733E-2,-1.6874544E-2,1.4699048E-2,-5.5078775E-2],"categories":[],"categories_nodes":[],"categories_segments":[],"categories_sizes":[],"default_left":[0,0,0,0,0,0,0,0,0,0,0,0,0,0,0,0,0,0,0,0,0],"id":8,"left_children":[1,3,5,7,9,11,13,-1,15,-1,17,-1,-1,19,-1,-1,-1,-1,-1,-1,-1],"loss_changes":[7.9004535E2,1.08315704E2,9.006668E1,4.4276337E1,6.044716E1,1.3805359E1,4.733063E1,0E0,3.6833008E1,0E0,1.9570492E1,0E0,0E0,4.324014E1,0E0,0E0,0E0,0E0,0E0,0E0,0E0],"parents":[2147483647,0,0,1,1,2,2,3,3,4,4,5,5,6,6,8,8,10,10,13,13],"right_children":[2,4,6,8,10,12,14,-1,16,-1,18,-1,-1,20,-1,-1,-1,-1,-1,-1,-1],"split_conditions":[1E0,1E0,1E0,1E0,1E0,1E0,2E0,4.036962E-2,2E0,-2.1932006E-2,2E0,-6.4945824E-2,-9.1099374E-2,1E0,-7.6693356E-2,8.702427E-2,2.1698806E-2,5.849733E-2,-1.6874544E-2,1.4699048E-2,-5.5078775E-2],"split_indices":[2,0,3,3,3,0,3,0,3,0,3,0,0,0,0,0,0,0,0,0,0],"split_type":[0,0,0,0,0,0,0,0,0,0,0,0,0,0,0,0,0,0,0,0,0],"sum_hessian":[3.5270059E3,2.0331937E3,1.4938123E3,1.4578292E3,5.753645E2,9.5130194E2,5.4251025E2,8.490256E2,6.0880365E2,3.5098874E2,2.2437576E2,6.4074524E2,3.105567E2,4.1932117E2,1.2318911E2,5.0372403E2,1.0507962E2,1.8243578E2,4.1939995E1,2.9307315E2,1.2624803E2],"tree_param":{"num_deleted":"0","num_feature":"6","num_nodes":"21","size_leaf_vector":"1"}},{"base_weights":[1.4823766E-3,4.057904E-1,-5.088616E-1,2.2905234E-1,6.524878E-1,-6.522793E-1,-2.4498083E-1,3.428876E-2,-6.7356713E-3,7.4707085E-1,1.889442E-1,-5.258757E-2,-8.9718856E-2,-8.59163E-2,-7.457785E-2,8.525332E-2,4.3101426E-2,2.81239E-2,-5.0444338E-3,1.6011583E-3,-2.9096061E-2],"categories":[],"categories_nodes":[],"categories_segments":[],"categories_sizes":[],"default_left":[0,0,0,0,0,0,0,0,0,0,0,0,0,0,0,0,0,0,0,0,0],"id":9,"left_children":[1,3,5,7,9,11,13,-1,-1,15,17,-1,-1,19,-1,-1,-1,-1,-1,-1,-1],"loss_changes":[7.2073535E2,8.482761E1,5.8274506E1,3.838868E1,3.5501038E1,3.0477844E1,4.3372967E1,0E0,0E0,2.2126404E1,3.0876021E0,0E0,0E0,8.67745E0,0E0,0E0,0E0,0E0,0E0,0E0,0E0],"parents":[2147483647,0,0,1,1,2,2,3,3,4,4,5,5,6,6,9,9,10,10,13,13],"right_children":[2,4,6,8,10,12,14,-1,-1,16,18,-1,-1,20,-1,-1,-1,-1,-1,-1,-1],"split_conditions":[1E0,1E0,1E0,1E0,2E0,1E0,2E0,3.428876E-2,-6.7356713E-3,1E0,1E0,-5.258757E-2,-8.9718856E-2,1E0,-7.457785E-2,8.525332E-2,4.3101426E-2,2.81239E-2,-5.0444338E-3,1.6011583E-3,-2.9096061E-2],"split_indices":[1,3,3,0,3,0,3,0,0,0,0,0,0,0,0,0,0,0,0,0,0],"split_type":[0,0,0,0,0,0,0,0,0,0,0,0,0,0,0,0,0,0,0,0,0],"sum_hessian":[3.4910144E3,1.9479788E3,1.5430355E3,1.136034E3,8.1194476E2,9.9874915E2,5.442864E2,8.206921E2,3.1534192E2,6.7384045E2,1.3810434E2,6.6082733E2,3.379218E2,4.139714E2,1.30315E2,5.039756E2,1.6986487E2,9.9549E1,3.8555336E1,2.77131E2,1.368404E2],"tree_param":{"num_deleted":"0","num_feature":"6","num_nodes":"21","size_leaf_vector":"1"}},{"base_weights":[1.4087287E-3,3.695058E-1,-4.9852633E-1,1.5044701E-1,8.93457E-1,-7.1560043E-1,2.7911294E-1,-1.6463412E-2,4.0458107E-1,7.458172E-1,1.116775E0,-8.4086335E-1,-4.8668796E-1,1.4630589E-2,8.025899E-1,-1.26992585E-2,1.4757431E-2,5.606718E-1,-4.7330868E-1,6.3304424E-2,8.954706E-1,1.0321347E-1,1.22219324E-1,-9.1695756E-2,-7.141399E-2,-3.3403853E-1,-1.0172737E-1,-2.0682104E-2,3.657412E-1,6.8973434E-1,1.07455485E-1,4.410379E-2,7.238521E-2,-6.671753E-2,-2.4589734E-2,9.7634815E-2,5.8864225E-2,-4.7232296E-2,-1.1331015E-2,4.9914803E-2,-1.2020765E-2,5.1127266E-2,9.112133E-2],"categories":[],"categories_nodes":[],"categories_segments":[],"categories_sizes":[],"default_left":[0,0,0,0,0,0,0,0,0,0,0,0,0,0,0,0,0,0,0,0,0,0,0,0,0,0,0,0,0,0,0,0,0,0,0,0,0,0,0,0,0,0,0],"id":10,"left_children":[1,3,5,7,9,11,13,15,17,19,21,23,25,27,29,-1,-1,31,33,-1,35,-1,-1,-1,-1,37,-1,-1,39,41,-1,-1,-1,-1,-1,-1,-1,-1,-1,-1,-1,-1,-1],"loss_changes":[6.371584E2,2.2874164E2,2.4804715E2,5.9705048E1,1.8544342E1,3.2512024E1,4.4448986E1,1.5437972E1,7.6722725E1,5.4550323E0,8.076782E-1,6.487549E0,3.2740646E1,1.6743029E1,2.5666199E0,0E0,0E0,8.937759E0,3.5733376E0,0E0,3.1705017E0,0E0,0E0,0E0,0E0,9.673313E0,0E0,0E0,5.4583044E0,2.6549454E0,0E0,0E0,0E0,0E0,0E0,0E0,0E0,0E0,0E0,0E0,0E0,0E0,0E0],"parents":[2147483647,0,0,1,1,2,2,3,3,4,4,5,5,6,6,7,7,8,8,9,9,10,10,11,11,12,12,13,13,14,14,17,17,18,18,20,20,25,25,28,28,29,29],"right_children":[2,4,6,8,10,12,14,16,18,20,22,24,26,28,30,-1,-1,32,34,-1,36,-1,-1,-1,-1,38,-1,-1,40,42,-1,-1,-1,-1,-1,-1,-1,-1,-1,-1,-1,-1,-1],"split_conditions":[1E0,3E0,3E0,1E0,4E0,1E0,4E0,2E0,2E0,1E0,1E0,2E0,2E0,1E0,5E0,-1.26992585E-2,1.4757431E-2,2E0,2E0,6.3304424E-2,2E0,1.0321347E-1,1.22219324E-1,-9.1695756E-2,-7.141399E-2,2E0,-1.0172737E-1,-2.0682104E-2,2E0,1E0,1.07455485E-1,4.410379E-2,7.238521E-2,-6.671753E-2,-2.4589734E-2,9.7634815E-2,5.8864225E-2,-4.7232296E-2,-1.1331015E-2,4.9914803E-2,-1.2020765E-2,5.1127266E-2,9.112133E-2],"split_indices":[2,5,5,3,5,3,5,5,3,3,3,5,3,3,5,0,0,5,5,0,3,0,0,0,0,5,0,0,3,3,0,0,0,0,0,0,0,0,0,0,0,0,0],"split_type":[0,0,0,0,0,0,0,0,0,0,0,0,0,0,0,0,0,0,0,0,0,0,0,0,0,0,0,0,0,0,0,0,0,0,0,0,0,0,0,0,0,0,0],"sum_hessian":[3.4603528E3,1.9931084E3,1.4672444E3,1.4063956E3,5.8671277E2,1.1471133E3,3.2013107E2,8.494369E2,5.569588E2,3.5581577E2,2.3089702E2,7.396803E2,4.0743298E2,2.1336044E2,1.0677063E2,5.0762396E2,3.418129E2,4.7318652E2,8.377226E1,2.0589302E2,1.4992274E2,1.3405502E2,9.6841995E1,4.5826697E2,2.814133E2,3.176692E2,8.976382E1,1.310904E2,8.227006E1,7.795729E1,2.8813341E1,2.751592E2,1.9802733E2,4.417749E1,3.9594772E1,1.16921196E2,3.300155E1,1.9460869E2,1.230605E2,6.45281E1,1.7741964E1,4.5003307E1,3.2953983E1],"tree_param":{"num_deleted":"0","num_feature":"6","num_nodes":"43","size_leaf_vector":"1"}},{"base_weights":[1.5769267E-3,3.6781538E-1,-4.5897713E-1,1.5911867E-1,8.87588E-1,-6.537052E-1,2.1208784E-1,2.7268994E-1,-1.2663777E-1,7.376779E-1,1.1232933E-1,-5.6653196E-1,-8.1578976E-1,-1.998422E-2,6.634469E-1,1.7473832E-2,4.08626E-2,-2.5692955E-2,6.6663767E-3,8.043071E-2,5.3213783E-2,-6.5181084E-2,-4.3171275E-2,-8.91044E-2,-6.85296E-2,7.7933357E-3,-2.5206808E-2,5.4537594E-1,9.4302036E-2,6.486582E-2,2.463526E-2],"categories":[],"categories_nodes":[],"categories_segments":[],"categories_sizes":[],"default_left":[0,0,0,0,0,0,0,0,0,0,0,0,0,0,0,0,0,0,0,0,0,0,0,0,0,0,0,0,0,0,0],"id":11,"left_children":[1,3,5,7,9,11,13,15,17,19,-1,21,23,25,27,-1,-1,-1,-1,-1,-1,-1,-1,-1,-1,-1,-1,29,-1,-1,-1],"loss_changes":[5.752856E2,2.0594617E2,1.9756265E2,4.4067642E1,1.8395752E1,1.6086853E1,3.568548E1,1.28607025E1,9.752982E0,4.166275E0,0E0,8.512787E0,3.3895874E0,5.152849E0,3.3039246E0,0E0,0E0,0E0,0E0,0E0,0E0,0E0,0E0,0E0,0E0,0E0,0E0,2.425066E0,0E0,0E0,0E0],"parents":[2147483647,0,0,1,1,2,2,3,3,4,4,5,5,6,6,7,7,8,8,9,9,11,11,12,12,13,13,14,14,27,27],"right_children":[2,4,6,8,10,12,14,16,18,20,-1,22,24,26,28,-1,-1,-1,-1,-1,-1,-1,-1,-1,-1,-1,-1,30,-1,-1,-1],"split_conditions":[1E0,3E0,3E0,1E0,4E0,1E0,4E0,2E0,2E0,1E0,1.1232933E-1,2E0,2E0,1E0,5E0,1.7473832E-2,4.08626E-2,-2.5692955E-2,6.6663767E-3,8.043071E-2,5.3213783E-2,-6.5181084E-2,-4.3171275E-2,-8.91044E-2,-6.85296E-2,7.7933357E-3,-2.5206808E-2,1E0,9.4302036E-2,6.486582E-2,2.463526E-2],"split_indices":[1,5,5,0,5,0,5,5,5,0,0,5,5,0,5,0,0,0,0,0,0,0,0,0,0,0,0,0,0,0,0],"split_type":[0,0,0,0,0,0,0,0,0,0,0,0,0,0,0,0,0,0,0,0,0,0,0,0,0,0,0,0,0,0,0],"sum_hessian":[3.408663E3,1.8988638E3,1.5097993E3,1.3557968E3,5.430671E2,1.170246E3,3.3955328E2,9.702325E2,3.8556427E2,3.3447098E2,2.0859612E2,7.638977E2,4.0634827E2,2.2488269E2,1.1467059E2,5.6522974E2,4.0500278E2,2.3012383E2,1.5544043E2,2.5038985E2,8.408114E1,4.6557013E2,2.9832758E2,2.5402615E2,1.5232213E2,1.5862292E2,6.6259766E1,8.26965E1,3.1974087E1,6.0597107E1,2.20994E1],"tree_param":{"num_deleted":"0","num_feature":"6","num_nodes":"31","size_leaf_vector":"1"}},{"base_weights":[1.6709937E-3,3.3712664E-1,-4.541295E-1,1.5550305E-1,7.960432E-1,-6.369599E-1,2.027291E-1,5.9088557E-3,2.9340756E-1,6.583168E-1,1.0162083E0,-7.19135E-2,-5.0630546E-1,-2.6199955E-2,6.7881685E-1,2.7459472E-2,8.347144E-2,6.248151E-2,1.0333514E-1,1.0192671E0,3.0531794E-2,-5.2929062E-2,3.6217596E-2,-7.1232244E-3,8.2209915E-2,5.697312E-2,9.5085725E-2,9.680936E-2,1.1284466E-1],"categories":[],"categories_nodes":[],"categories_segments":[],"categories_sizes":[],"default_left":[0,0,0,0,0,0,0,0,0,0,0,0,0,0,0,0,0,0,0,0,0,0,0,0,0,0,0,0,0],"id":12,"left_children":[1,3,5,7,9,11,13,-1,15,17,19,-1,21,23,25,-1,-1,-1,-1,27,-1,-1,-1,-1,-1,-1,-1,-1,-1],"loss_changes":[5.151654E2,1.616469E2,1.7167313E2,1.8487698E1,1.6010925E1,1.1635529E1,3.3998398E1,0E0,5.600006E0,3.6417236E0,1.4509583E-1,0E0,8.873421E0,8.138076E0,2.463684E0,0E0,0E0,0E0,0E0,7.258606E-2,0E0,0E0,0E0,0E0,0E0,0E0,0E0,0E0,0E0],"parents":[2147483647,0,0,1,1,2,2,3,3,4,4,5,5,6,6,8,8,9,9,10,10,12,12,13,13,14,14,19,19],"right_children":[2,4,6,8,10,12,14,-1,16,18,20,-1,22,24,26,-1,-1,-1,-1,28,-1,-1,-1,-1,-1,-1,-1,-1,-1],"split_conditions":[1E0,3E0,3E0,2E0,4E0,2E0,4E0,5.9088557E-3,2E0,2E0,7E0,-7.19135E-2,2E0,2E0,5E0,2.7459472E-2,8.347144E-2,6.248151E-2,1.0333514E-1,5E0,3.0531794E-2,-5.2929062E-2,3.6217596E-2,-7.1232244E-3,8.2209915E-2,5.697312E-2,9.5085725E-2,9.680936E-2,1.1284466E-1],"split_indices":[2,5,5,5,5,5,5,0,4,4,5,0,4,4,5,0,0,0,0,5,0,0,0,0,0,0,0,0,0],"split_type":[0,0,0,0,0,0,0,0,0,0,0,0,0,0,0,0,0,0,0,0,0,0,0,0,0,0,0,0,0],"sum_hessian":[3.3672764E3,1.9398584E3,1.427418E3,1.3907755E3,5.490829E2,1.1166416E3,3.107764E2,8.193582E2,5.714173E2,3.4023538E2,2.088475E2,6.8273285E2,4.3390872E2,2.1050096E2,1.0027542E2,5.5368164E2,1.7735611E1,3.1478204E2,2.5453344E1,2.0752081E2,1.326698E0,4.231015E2,1.0807212E1,2.007596E2,9.741372E0,7.378329E1,2.6492136E1,1.480128E2,5.950801E1],"tree_param":{"num_deleted":"0","num_feature":"6","num_nodes":"29","size_leaf_vector":"1"}},{"base_weights":[1.856285E-3,3.358468E-1,-4.172384E-1,1.865824E-1,5.518424E-1,-5.3744113E-1,-1.9915038E-1,1.8697275E-2,-1.0539583E-2,6.405548E-2,1.1839165E-1,-5.3310465E-2,-1.6115E-1,-6.1967815E-3,-6.5438825E-1,-7.73074E-2,1.1420367E-1,-1.2012076E-1,6.714931E-2],"categories":[],"categories_nodes":[],"categories_segments":[],"categories_sizes":[],"default_left":[0,0,0,0,0,0,0,0,0,0,0,0,0,0,0,0,0,0,0],"id":13,"left_children":[1,3,5,7,9,11,13,-1,-1,-1,15,-1,-1,-1,17,-1,-1,-1,-1],"loss_changes":[4.6602054E2,5.9631805E1,3.8600525E1,1.4474869E-1,2.9018707E1,3.5717773E0,3.282372E1,0E0,0E0,0E0,1.19308075E2,0E0,0E0,0E0,8.908026E1,0E0,0E0,0E0,0E0],"parents":[2147483647,0,0,1,1,2,2,3,3,4,4,5,5,6,6,10,10,14,14],"right_children":[2,4,6,8,10,12,14,-1,-1,-1,16,-1,-1,-1,18,-1,-1,-1,-1],"split_conditions":[1E0,1E0,1E0,2E0,2E0,2E0,2E0,1.8697275E-2,-1.0539583E-2,6.405548E-2,2E0,-5.3310465E-2,-1.6115E-1,-6.1967815E-3,2E0,-7.73074E-2,1.1420367E-1,-1.2012076E-1,6.714931E-2],"split_indices":[1,3,3,4,3,4,3,0,0,0,4,0,0,0,4,0,0,0,0],"split_type":[0,0,0,0,0,0,0,0,0,0,0,0,0,0,0,0,0,0,0],"sum_hessian":[3.3273438E3,1.8517896E3,1.4755542E3,1.0961532E3,7.556363E2,9.503107E2,5.2524347E2,1.095049E3,1.1042936E0,6.268616E2,1.2877472E2,9.479796E2,2.331107E0,4.044896E2,1.2075383E2,6.896216E1,5.9812557E1,8.556089E1,3.5192944E1],"tree_param":{"num_deleted":"0","num_feature":"6","num_nodes":"19","size_leaf_vector":"1"}},{"base_weights":[1.6802952E-3,3.064568E-1,-4.132346E-1,1.7746928E-1,5.0518984E-1,-5.441479E-1,-1.8679148E-1,1.8218825E-2,-1.6185835E-1,6.030233E-2,5.2173607E-2,-5.448053E-2,-6.0821795E-3,-7.6161535E-3,-5.9751517E-1,-8.027522E-2,1.0284018E-1,-1.0698793E-1,6.6142626E-2],"categories":[],"categories_nodes":[],"categories_segments":[],"categories_sizes":[],"default_left":[0,0,0,0,0,0,0,0,0,0,0,0,0,0,0,0,0,0,0],"id":14,"left_children":[1,3,5,7,9,11,13,-1,-1,-1,15,-1,-1,-1,17,-1,-1,-1,-1],"loss_changes":[4.1694968E2,4.863768E1,4.1290848E1,1.0077766E1,3.3103485E1,2.4783325E-1,2.326622E1,0E0,0E0,0E0,1.1255937E2,0E0,0E0,0E0,6.5361046E1,0E0,0E0,0E0,0E0],"parents":[2147483647,0,0,1,1,2,2,3,3,4,4,5,5,6,6,10,10,14,14],"right_children":[2,4,6,8,10,12,14,-1,-1,-1,16,-1,-1,-1,18,-1,-1,-1,-1],"split_conditions":[1E0,1E0,1E0,2E0,2E0,2E0,2E0,1.8218825E-2,-1.6185835E-1,6.030233E-2,2E0,-5.448053E-2,-6.0821795E-3,-7.6161535E-3,2E0,-8.027522E-2,1.0284018E-1,-1.0698793E-1,6.6142626E-2],"split_indices":[2,3,3,4,3,4,3,0,0,0,4,0,0,0,4,0,0,0,0],"split_type":[0,0,0,0,0,0,0,0,0,0,0,0,0,0,0,0,0,0,0],"sum_hessian":[3.295182E3,1.8998816E3,1.3953003E3,1.1532551E3,7.466265E2,8.8325946E2,5.1204083E2,1.1511293E3,2.1259205E0,6.137498E2,1.3287668E2,8.8193274E2,1.3267102E0,4.0432095E2,1.07719894E2,7.09342E1,6.1942482E1,7.843913E1,2.9280764E1],"tree_param":{"num_deleted":"0","num_feature":"6","num_nodes":"19","size_leaf_vector":"1"}},{"base_weights":[1.49775E-3,2.7907446E-1,-3.7640795E-1,1.136359E-1,7.17546E-1,-5.450375E-1,2.1624315E-1,2.8971347E-3,2.3584694E-1,5.7931226E-1,9.477205E-1,-6.2344607E-2,-4.2261472E-1,1.295593E-2,6.474307E-1,2.22719E-2,6.25298E-2,5.5390533E-2,8.8617094E-2,8.964335E-2,1.0557163E0,-4.3922223E-2,1.943728E-2,-1.9561818E-3,6.60324E-2,5.4470506E-2,9.086363E-2,1.0682698E-1,2.8180504E-2],"categories":[],"categories_nodes":[],"categories_segments":[],"categories_sizes":[],"default_left":[0,0,0,0,0,0,0,0,0,0,0,0,0,0,0,0,0,0,0,0,0,0,0,0,0,0,0,0,0],"id":15,"left_children":[1,3,5,7,9,11,13,-1,15,17,19,-1,21,23,25,-1,-1,-1,-1,-1,27,-1,-1,-1,-1,-1,-1,-1,-1],"loss_changes":[3.4213092E2,1.3632204E2,1.381503E2,1.4131775E1,1.5835144E1,1.0060425E1,2.6871582E1,0E0,2.719164E0,2.037468E0,1.1508179E-1,0E0,4.4197617E0,4.4214835E0,2.1408997E0,0E0,0E0,0E0,0E0,0E0,2.4377823E-1,0E0,0E0,0E0,0E0,0E0,0E0,0E0,0E0],"parents":[2147483647,0,0,1,1,2,2,3,3,4,4,5,5,6,6,8,8,9,9,10,10,12,12,13,13,14,14,20,20],"right_children":[2,4,6,8,10,12,14,-1,16,18,20,-1,22,24,26,-1,-1,-1,-1,-1,28,-1,-1,-1,-1,-1,-1,-1,-1],"split_conditions":[1E0,3E0,3E0,2E0,4E0,2E0,4E0,2.8971347E-3,2E0,2E0,5E0,-6.2344607E-2,2E0,2E0,5E0,2.22719E-2,6.25298E-2,5.5390533E-2,8.8617094E-2,8.964335E-2,7E0,-4.3922223E-2,1.943728E-2,-1.9561818E-3,6.60324E-2,5.4470506E-2,9.086363E-2,1.0682698E-1,2.8180504E-2],"split_indices":[2,5,5,5,5,5,5,0,4,4,5,0,4,4,5,0,0,0,0,0,5,0,0,0,0,0,0,0,0],"split_type":[0,0,0,0,0,0,0,0,0,0,0,0,0,0,0,0,0,0,0,0,0,0,0,0,0,0,0,0,0],"sum_hessian":[3.2595625E3,1.8793884E3,1.380174E3,1.3654524E3,5.139361E2,1.0745173E3,3.056567E2,8.0736707E2,5.5808527E2,3.2329483E2,1.9064128E2,6.525098E2,4.2200748E2,2.0842358E2,9.723311E1,5.41407E2,1.667832E1,3.0116443E2,2.2130375E1,1.3556317E2,5.507811E1,4.112266E2,1.0780879E1,1.9937845E2,9.045135E0,7.20019E1,2.5231209E1,5.3824665E1,1.2534437E0],"tree_param":{"num_deleted":"0","num_feature":"6","num_nodes":"29","size_leaf_vector":"1"}},{"base_weights":[1.6626435E-3,-1.60217E-1,4.916889E-1,-4.9876124E-2,-4.0578735E-1,3.2747427E-1,8.019094E-1,-1.2241544E-2,5.632079E-2,-4.925873E-2,-2.7121276E-1,4.1769877E-1,8.782725E-2,7.3054224E-1,9.774849E-1,4.1923113E-3,5.8876436E-2,-2.866354E-2,1.41770495E-2,3.93076E-2,8.083429E-2,4.1360026E-3,6.912302E-2,8.0752246E-2,4.7987852E-1,9.846523E-2,3.498007E-2,4.405835E-2,6.654048E-2],"categories":[],"categories_nodes":[],"categories_segments":[],"categories_sizes":[],"default_left":[0,0,0,0,0,0,0,0,0,0,0,0,0,0,0,0,0,0,0,0,0,0,0,0,0,0,0,0,0],"id":16,"left_children":[1,3,5,7,9,11,13,-1,15,-1,17,19,21,23,25,-1,-1,-1,-1,-1,-1,-1,-1,-1,27,-1,-1,-1,-1],"loss_changes":[2.557175E2,6.5639206E1,4.051654E1,1.2895336E1,8.640053E0,1.13172455E1,2.7490387E0,0E0,5.1858206E0,0E0,1.9305878E0,3.3490982E0,4.0339317E0,3.480667E0,1.6021729E-3,0E0,0E0,0E0,0E0,0E0,0E0,0E0,0E0,0E0,6.816769E-2,0E0,0E0,0E0,0E0],"parents":[2147483647,0,0,1,1,2,2,3,3,4,4,5,5,6,6,8,8,10,10,11,11,12,12,13,13,14,14,24,24],"right_children":[2,4,6,8,10,12,14,-1,16,-1,18,20,22,24,26,-1,-1,-1,-1,-1,-1,-1,-1,-1,28,-1,-1,-1,-1],"split_conditions":[3E0,1E0,4E0,2E0,2E0,1E0,5E0,-1.2241544E-2,2E0,-4.925873E-2,2E0,2E0,2E0,1E0,7E0,4.1923113E-3,5.8876436E-2,-2.866354E-2,1.41770495E-2,3.93076E-2,8.083429E-2,4.1360026E-3,6.912302E-2,8.0752246E-2,2E0,9.846523E-2,3.498007E-2,4.405835E-2,6.654048E-2],"split_indices":[5,0,5,5,5,0,5,0,4,0,4,4,4,0,5,0,0,0,0,0,0,0,0,0,4,0,0,0,0],"split_type":[0,0,0,0,0,0,0,0,0,0,0,0,0,0,0,0,0,0,0,0,0,0,0,0,0,0,0,0,0],"sum_hessian":[3.221664E3,2.4221746E3,7.994897E2,1.6720734E3,7.501011E2,5.241091E2,2.7538058E2,9.9337897E2,6.786944E2,4.5437268E2,2.957284E2,3.8021808E2,1.43891E2,1.9946413E2,7.591645E1,6.6187555E2,1.6818878E1,2.8537708E2,1.0351321E1,3.5956076E2,2.065733E1,1.345946E2,9.296399E0,1.5090031E2,4.856382E1,7.4497086E1,1.4193641E0,4.2860596E1,5.703224E0],"tree_param":{"num_deleted":"0","num_feature":"6","num_nodes":"29","size_leaf_vector":"1"}},{"base_weights":[1.811964E-3,2.5496385E-1,-3.4379444E-1,3.640489E-1,-8.315804E-3,-2.586613E-1,-5.3863907E-1,3.4888037E-2,8.4342E-2,-3.2361452E-3,6.387336E-2,-2.761004E-2,5.1012944E-2,-5.566888E-2,2.5502404E-2],"categories":[],"categories_nodes":[],"categories_segments":[],"categories_sizes":[],"default_left":[0,0,0,0,0,0,0,0,0,0,0,0,0,0,0],"id":17,"left_children":[1,3,5,7,9,11,13,-1,-1,-1,-1,-1,-1,-1,-1],"loss_changes":[2.7972577E2,5.3003708E1,2.228331E1,9.193665E0,8.447303E0,1.277903E1,6.016945E0,0E0,0E0,0E0,0E0,0E0,0E0,0E0,0E0],"parents":[2147483647,0,0,1,1,2,2,3,3,4,4,5,5,6,6],"right_children":[2,4,6,8,10,12,14,-1,-1,-1,-1,-1,-1,-1,-1],"split_conditions":[1E0,1E0,1E0,2E0,2E0,2E0,2E0,3.4888037E-2,8.4342E-2,-3.2361452E-3,6.387336E-2,-2.761004E-2,5.1012944E-2,-5.566888E-2,2.5502404E-2],"split_indices":[2,0,0,4,4,4,4,0,0,0,0,0,0,0,0],"split_type":[0,0,0,0,0,0,0,0,0,0,0,0,0,0,0],"sum_hessian":[3.1951958E3,1.844435E3,1.3507607E3,1.3038331E3,5.406019E2,9.416532E2,4.0910757E2,1.2655167E3,3.8316483E1,5.221478E2,1.845407E1,9.213933E2,2.0259869E1,4.0030234E2,8.805236E0],"tree_param":{"num_deleted":"0","num_feature":"6","num_nodes":"15","size_leaf_vector":"1"}},{"base_weights":[1.7181475E-3,2.3153014E-1,-3.12098E-1,9.478958E-2,6.202655E-1,-4.5471528E-1,1.8295646E-1,2.6521315E-3,1.9413425E-1,4.8968896E-1,8.534857E-1,-5.241244E-2,-3.4875795E-1,1.2018524E-2,5.6274265E-1,1.8470574E-2,4.8422676E-2,4.689276E-2,7.600176E-2,8.006536E-2,9.684727E-1,-3.609304E-2,1.0209878E-2,-1.2453129E-3,5.30411E-2,4.6680145E-2,8.174486E-2,9.820018E-2,2.2934753E-2],"categories":[],"categories_nodes":[],"categories_segments":[],"categories_sizes":[],"default_left":[0,0,0,0,0,0,0,0,0,0,0,0,0,0,0,0,0,0,0,0,0,0,0,0,0,0,0,0,0],"id":18,"left_children":[1,3,5,7,9,11,13,-1,15,17,19,-1,21,23,25,-1,-1,-1,-1,-1,27,-1,-1,-1,-1,-1,-1,-1,-1],"loss_changes":[2.2876144E2,9.727388E1,9.475737E1,9.18982E0,1.4087082E1,7.4754486E0,1.9509218E1,0E0,1.4204769E0,1.3705063E0,2.5498962E-1,0E0,2.3151321E0,2.649472E0,1.8980236E0,0E0,0E0,0E0,0E0,0E0,2.610283E-1,0E0,0E0,0E0,0E0,0E0,0E0,0E0,0E0],"parents":[2147483647,0,0,1,1,2,2,3,3,4,4,5,5,6,6,8,8,9,9,10,10,12,12,13,13,14,14,20,20],"right_children":[2,4,6,8,10,12,14,-1,16,18,20,-1,22,24,26,-1,-1,-1,-1,-1,28,-1,-1,-1,-1,-1,-1,-1,-1],"split_conditions":[1E0,3E0,3E0,2E0,4E0,2E0,4E0,2.6521315E-3,2E0,2E0,5E0,-5.241244E-2,2E0,2E0,5E0,1.8470574E-2,4.8422676E-2,4.689276E-2,7.600176E-2,8.006536E-2,7E0,-3.609304E-2,1.0209878E-2,-1.2453129E-3,5.30411E-2,4.6680145E-2,8.174486E-2,9.820018E-2,2.2934753E-2],"split_indices":[2,5,5,5,5,5,5,0,4,4,5,0,4,4,5,0,0,0,0,0,5,0,0,0,0,0,0,0,0],"split_type":[0,0,0,0,0,0,0,0,0,0,0,0,0,0,0,0,0,0,0,0,0,0,0,0,0,0,0,0,0],"sum_hessian":[3.1700105E3,1.8300796E3,1.3399309E3,1.3547721E3,4.7530737E2,1.0403145E3,2.9961652E2,8.0372833E2,5.510438E2,3.066938E2,1.6861359E2,6.26179E2,4.1413544E2,2.073307E2,9.228581E1,5.352829E2,1.5760919E1,2.8735913E2,1.933467E1,1.209875E2,4.7626083E1,4.0344254E2,1.0692902E1,1.9891647E2,8.414233E0,6.909296E1,2.319285E1,4.6447308E1,1.1787758E0],"tree_param":{"num_deleted":"0","num_feature":"6","num_nodes":"29","size_leaf_vector":"1"}},{"base_weights":[1.8166347E-3,-1.2208876E-1,2.0464262E-1,-2.8295511E-2,-3.4194294E-1,3.1831425E-1,-3.1068474E-1,-2.6281008E-3,-9.437803E-2,-3.3775385E-2,-1.21998005E-1,4.110908E-2,9.35044E-3,-8.7116015E-1,7.1315385E-2,-7.853874E-2,-1.0549368E-1],"categories":[],"categories_nodes":[],"categories_segments":[],"categories_sizes":[],"default_left":[0,0,0,0,0,0,0,0,0,0,0,0,0,0,0,0,0],"id":19,"left_children":[1,3,5,7,9,11,13,-1,-1,-1,-1,-1,-1,15,-1,-1,-1],"loss_changes":[7.8857216E1,4.0157265E1,6.980343E1,2.4953184E0,1.7301483E0,2.0305397E1,1.2431189E2,0E0,0E0,0E0,0E0,0E0,0E0,1.3742981E0,0E0,0E0,0E0],"parents":[2147483647,0,0,1,1,2,2,3,3,4,4,5,5,6,6,13,13],"right_children":[2,4,6,8,10,12,14,-1,-1,-1,-1,-1,-1,16,-1,-1,-1],"split_conditions":[1E0,1E0,2E0,2E0,2E0,1E0,2E0,-2.6281008E-3,-9.437803E-2,-3.3775385E-2,-1.21998005E-1,4.110908E-2,9.35044E-3,1E0,7.1315385E-2,-7.853874E-2,-1.0549368E-1],"split_indices":[3,0,3,4,4,0,4,0,0,0,0,0,0,0,0,0,0],"split_type":[0,0,0,0,0,0,0,0,0,0,0,0,0,0,0,0,0],"sum_hessian":[3.135823E3,1.946881E3,1.1889419E3,1.3654762E3,5.8140485E2,9.743916E2,2.1455035E2,1.3635045E3,1.9716562E0,5.800222E2,1.3826189E0,6.891559E2,2.852357E2,1.3874625E2,7.5804115E1,9.819156E1,4.0554684E1],"tree_param":{"num_deleted":"0","num_feature":"6","num_nodes":"17","size_leaf_vector":"1"}},{"base_weights":[1.5466877E-3,-1.3024403E-1,4.153948E-1,-4.8078086E-2,-3.1733933E-1,2.703862E-1,7.08016E-1,-1.0568536E-2,3.6459707E-2,-3.9287213E-2,-2.0283529E-1,3.412966E-1,8.747931E-2,6.368638E-1,8.90314E-1,2.6934422E-3,4.0756654E-2,-2.1017833E-2,3.065573E-5,3.239206E-2,6.4799294E-2,5.619316E-3,5.3580858E-2,7.097804E-2,4.1350294E-2,8.9764856E-2,2.9904822E-2],"categories":[],"categories_nodes":[],"categories_segments":[],"categories_sizes":[],"default_left":[0,0,0,0,0,0,0,0,0,0,0,0,0,0,0,0,0,0,0,0,0,0,0,0,0,0,0],"id":20,"left_children":[1,3,5,7,9,11,13,-1,15,-1,17,19,21,23,25,-1,-1,-1,-1,-1,-1,-1,-1,-1,-1,-1,-1],"loss_changes":[1.6992677E2,3.6311615E1,3.173973E1,8.005919E0,6.1553726E0,6.517235E0,2.6592102E0,0E0,2.345596E0,0E0,4.3056965E-1,1.7268105E0,1.9668425E0,2.6774368E0,2.3475647E-2,0E0,0E0,0E0,0E0,0E0,0E0,0E0,0E0,0E0,0E0,0E0,0E0],"parents":[2147483647,0,0,1,1,2,2,3,3,4,4,5,5,6,6,8,8,10,10,11,11,12,12,13,13,14,14],"right_children":[2,4,6,8,10,12,14,-1,16,-1,18,20,22,24,26,-1,-1,-1,-1,-1,-1,-1,-1,-1,-1,-1,-1],"split_conditions":[3E0,1E0,4E0,2E0,2E0,1E0,5E0,-1.0568536E-2,2E0,-3.9287213E-2,2E0,2E0,2E0,1E0,7E0,2.6934422E-3,4.0756654E-2,-2.1017833E-2,3.065573E-5,3.239206E-2,6.4799294E-2,5.619316E-3,5.3580858E-2,7.097804E-2,4.1350294E-2,8.9764856E-2,2.9904822E-2],"split_indices":[5,0,5,5,5,0,5,0,4,0,4,4,4,0,5,0,0,0,0,0,0,0,0,0,0,0,0],"split_type":[0,0,0,0,0,0,0,0,0,0,0,0,0,0,0,0,0,0,0,0,0,0,0,0,0,0,0],"sum_hessian":[3.1135671E3,2.3620522E3,7.5151483E2,1.6421377E3,7.199147E2,5.0378693E2,2.477279E2,9.7647815E2,6.6565955E2,4.3230966E2,2.8760498E2,3.62417E2,1.4136992E2,1.8141422E2,6.631369E1,6.5004724E2,1.5612336E1,2.775381E2,1.0066893E1,3.449309E2,1.7486074E1,1.3320004E2,8.169876E0,1.3512476E2,4.6289455E1,6.498933E1,1.3243644E0],"tree_param":{"num_deleted":"0","num_feature":"6","num_nodes":"27","size_leaf_vector":"1"}},{"base_weights":[1.6348467E-3,2.1190631E-1,-2.8647473E-1,2.9751003E-1,9.219914E-3,-2.2291212E-1,-4.3800777E-1,2.863185E-2,7.0456974E-2,-6.8330456E-4,4.849252E-2,-2.3475748E-2,3.4371894E-2,-4.511672E-2,1.3725583E-2],"categories":[],"categories_nodes":[],"categories_segments":[],"categories_sizes":[],"default_left":[0,0,0,0,0,0,0,0,0,0,0,0,0,0,0],"id":21,"left_children":[1,3,5,7,9,11,13,-1,-1,-1,-1,-1,-1,-1,-1],"loss_changes":[1.8738113E2,3.1021423E1,1.2471825E1,5.525093E0,4.065708E0,6.265011E0,2.9733963E0,0E0,0E0,0E0,0E0,0E0,0E0,0E0,0E0],"parents":[2147483647,0,0,1,1,2,2,3,3,4,4,5,5,6,6],"right_children":[2,4,6,8,10,12,14,-1,-1,-1,-1,-1,-1,-1,-1],"split_conditions":[1E0,1E0,1E0,2E0,2E0,2E0,2E0,2.863185E-2,7.0456974E-2,-6.8330456E-4,4.849252E-2,-2.3475748E-2,3.4371894E-2,-4.511672E-2,1.3725583E-2],"split_indices":[2,0,0,4,4,4,4,0,0,0,0,0,0,0,0],"split_type":[0,0,0,0,0,0,0,0,0,0,0,0,0,0,0],"sum_hessian":[3.0910542E3,1.7870635E3,1.3039908E3,1.2560911E3,5.3097235E2,9.2039105E2,3.835997E2,1.2241385E3,3.195258E1,5.145928E2,1.6379604E1,9.021181E2,1.8272964E1,3.7523184E2,8.3678665E0],"tree_param":{"num_deleted":"0","num_feature":"6","num_nodes":"15","size_leaf_vector":"1"}},{"base_weights":[1.5332308E-3,1.9219846E-1,-2.5985518E-1,7.96869E-2,5.3367805E-1,-3.7982202E-1,1.518905E-1,1.573675E-1,-9.846901E-2,4.120542E-1,7.6703763E-1,-3.2542542E-1,-5.0506777E-1,9.617784E-3,4.8285142E-1,1.1053187E-2,2.2561844E-2,-1.693151E-2,6.304511E-4,5.0129622E-2,1.9621274E-2,7.1238035E-1,8.9054865E-1,-3.8287085E-2,-2.39828E-2,-5.7142492E-2,-4.0147807E-2,3.7205485E-3,-6.5408708E-3,5.6943935E-1,1.9936295E-1,7.805139E-2,5.098796E-2,9.0517804E-2,1.8270375E-2,4.6549633E-2,8.414205E-2,1.5863108E-2,2.8510064E-2],"categories":[],"categories_nodes":[],"categories_segments":[],"categories_sizes":[],"default_left":[0,0,0,0,0,0,0,0,0,0,0,0,0,0,0,0,0,0,0,0,0,0,0,0,0,0,0,0,0,0,0,0,0,0,0,0,0,0,0],"id":22,"left_children":[1,3,5,7,9,11,13,15,17,19,21,23,25,27,29,-1,-1,-1,-1,-1,-1,31,33,-1,-1,-1,-1,-1,-1,35,37,-1,-1,-1,-1,-1,-1,-1,-1],"loss_changes":[1.5308403E2,6.819593E1,6.40525E1,1.8520082E1,1.2171791E1,6.6726227E0,1.3792752E1,2.9526806E0,3.0192223E0,5.514675E0,3.7543488E-1,3.3623352E0,1.8469391E0,4.2870575E-1,2.0483818E0,0E0,0E0,0E0,0E0,0E0,0E0,1.1017303E0,2.6841736E-1,0E0,0E0,0E0,0E0,0E0,0E0,1.5004101E0,3.2112002E-2,0E0,0E0,0E0,0E0,0E0,0E0,0E0,0E0],"parents":[2147483647,0,0,1,1,2,2,3,3,4,4,5,5,6,6,7,7,8,8,9,9,10,10,11,11,12,12,13,13,14,14,21,21,22,22,29,29,30,30],"right_children":[2,4,6,8,10,12,14,16,18,20,22,24,26,28,30,-1,-1,-1,-1,-1,-1,32,34,-1,-1,-1,-1,-1,-1,36,38,-1,-1,-1,-1,-1,-1,-1,-1],"split_conditions":[1E0,3E0,3E0,1E0,4E0,1E0,4E0,2E0,2E0,1E0,5E0,2E0,2E0,1E0,1E0,1.1053187E-2,2.2561844E-2,-1.693151E-2,6.304511E-4,5.0129622E-2,1.9621274E-2,1E0,7E0,-3.8287085E-2,-2.39828E-2,-5.7142492E-2,-4.0147807E-2,3.7205485E-3,-6.5408708E-3,5E0,5E0,7.805139E-2,5.098796E-2,9.0517804E-2,1.8270375E-2,4.6549633E-2,8.414205E-2,1.5863108E-2,2.8510064E-2],"split_indices":[2,5,5,0,5,0,5,5,5,0,5,5,5,0,0,0,0,0,0,0,0,0,5,0,0,0,0,0,0,5,5,0,0,0,0,0,0,0,0],"split_type":[0,0,0,0,0,0,0,0,0,0,0,0,0,0,0,0,0,0,0,0,0,0,0,0,0,0,0,0,0,0,0,0,0,0,0,0,0,0,0],"sum_hessian":[3.0696501E3,1.7750995E3,1.2945507E3,1.3361084E3,4.3899103E2,1.00252966E3,2.9202103E2,9.305021E2,4.0560635E2,2.904028E2,1.4858823E2,7.0146735E2,3.0106232E2,2.0494765E2,8.7073364E1,5.533784E2,3.7712363E2,2.4161462E2,1.6399171E2,2.045195E2,8.588329E1,1.0769692E2,4.0891304E1,4.176827E2,2.8378467E2,1.8075725E2,1.2030506E2,1.5021631E2,5.4731354E1,6.592786E1,2.114551E1,7.844792E1,2.9249002E1,3.979016E1,1.1011426E0,4.9660572E1,1.6267282E1,1.6267437E1,4.878072E0],"tree_param":{"num_deleted":"0","num_feature":"6","num_nodes":"39","size_leaf_vector":"1"}},{"base_weights":[1.5809973E-3,-1.066116E-1,3.522714E-1,-4.5514498E-2,-2.4832551E-1,2.2448298E-1,6.2655604E-1,-9.233057E-3,2.3281489E-2,-3.1338796E-2,-1.5168402E-1,2.798056E-1,8.560591E-2,5.5669326E-1,8.132933E-1,1.5658558E-3,3.287468E-2,-1.5658762E-2,-1.5941708E-3,2.650444E-2,5.5696815E-2,5.995463E-3,4.6902042E-2,6.2473375E-2,3.5997603E-2,8.209604E-2,2.5357319E-2],"categories":[],"categories_nodes":[],"categories_segments":[],"categories_sizes":[],"default_left":[0,0,0,0,0,0,0,0,0,0,0,0,0,0,0,0,0,0,0,0,0,0,0,0,0,0,0],"id":23,"left_children":[1,3,5,7,9,11,13,-1,15,-1,17,19,21,23,25,-1,-1,-1,-1,-1,-1,-1,-1,-1,-1,-1,-1],"loss_changes":[1.1528824E2,2.0094461E1,2.496962E1,5.2320576E0,4.349617E0,3.7428303E0,2.5104141E0,0E0,1.5278407E0,0E0,1.8608475E-1,1.2849922E0,1.359679E0,2.0299263E0,4.789734E-2,0E0,0E0,0E0,0E0,0E0,0E0,0E0,0E0,0E0,0E0,0E0,0E0],"parents":[2147483647,0,0,1,1,2,2,3,3,4,4,5,5,6,6,8,8,10,10,11,11,12,12,13,13,14,14],"right_children":[2,4,6,8,10,12,14,-1,16,-1,18,20,22,24,26,-1,-1,-1,-1,-1,-1,-1,-1,-1,-1,-1,-1],"split_conditions":[3E0,1E0,4E0,2E0,2E0,1E0,5E0,-9.233057E-3,2E0,-3.1338796E-2,2E0,2E0,2E0,1E0,7E0,1.5658558E-3,3.287468E-2,-1.5658762E-2,-1.5941708E-3,2.650444E-2,5.5696815E-2,5.995463E-3,4.6902042E-2,6.2473375E-2,3.5997603E-2,8.209604E-2,2.5357319E-2],"split_indices":[5,0,5,5,5,0,5,0,4,0,4,4,4,0,5,0,0,0,0,0,0,0,0,0,0,0,0],"split_type":[0,0,0,0,0,0,0,0,0,0,0,0,0,0,0,0,0,0,0,0,0,0,0,0,0,0,0],"sum_hessian":[3.0365403E3,2.3211355E3,7.154047E2,1.6228132E3,6.983222E2,4.8927246E2,2.2613228E2,9.65466E2,6.573472E2,4.1600812E2,2.8231406E2,3.4916534E2,1.4010713E2,1.67462E2,5.8670277E1,6.423681E2,1.4979127E1,2.7232303E2,9.991049E0,3.333671E2,1.579826E1,1.3240529E2,7.701838E0,1.2280906E2,4.4652946E1,5.7417038E1,1.2532407E0],"tree_param":{"num_deleted":"0","num_feature":"6","num_nodes":"27","size_leaf_vector":"1"}},{"base_weights":[1.6298764E-3,3.0953068E-1,-3.8397208E-1,5.094738E-1,1.2045102E-2,-2.7400082E-1,-5.20578E-1,5.3314155E-1,1.1801104E-2,-1.649753E-2,2.7392316E-1,-4.0318195E-2,-4.3201745E-2,-4.8551363E-1,-9.3411885E-2,4.3120947E-2,7.1796976E-2,3.4766607E-2,-1.306617E-2,7.326718E-3,-5.258133E-2,-5.5138856E-2,-3.229901E-2],"categories":[],"categories_nodes":[],"categories_segments":[],"categories_sizes":[],"default_left":[0,0,0,0,0,0,0,0,0,0,0,0,0,0,0,0,0,0,0,0,0,0,0],"id":24,"left_children":[1,3,5,7,9,11,13,15,-1,-1,17,-1,19,21,-1,-1,-1,-1,-1,-1,-1,-1,-1],"loss_changes":[3.5850974E2,9.985893E1,1.9997513E1,9.239868E0,3.1377892E1,2.218993E1,8.20047E0,1.7523224E1,0E0,0E0,8.189901E0,0E0,1.5125692E1,5.7342987E0,0E0,0E0,0E0,0E0,0E0,0E0,0E0,0E0,0E0],"parents":[2147483647,0,0,1,1,2,2,3,3,4,4,5,5,6,6,7,7,10,10,12,12,13,13],"right_children":[2,4,6,8,10,12,14,16,-1,-1,18,-1,20,22,-1,-1,-1,-1,-1,-1,-1,-1,-1],"split_conditions":[1E0,1E0,1E0,2E0,1E0,1E0,2E0,1E0,1.1801104E-2,-1.649753E-2,2E0,-4.0318195E-2,2E0,1E0,-9.3411885E-2,4.3120947E-2,7.1796976E-2,3.4766607E-2,-1.306617E-2,7.326718E-3,-5.258133E-2,-5.5138856E-2,-3.229901E-2],"split_indices":[1,2,2,3,3,3,3,3,0,0,3,0,3,3,0,0,0,0,0,0,0,0,0],"split_type":[0,0,0,0,0,0,0,0,0,0,0,0,0,0,0,0,0,0,0,0,0,0,0],"sum_hessian":[3.0176091E3,1.6779631E3,1.339646E3,1.0030741E3,6.7488904E2,7.438409E2,5.958051E2,9.455447E2,5.7529373E1,4.0290762E2,2.7198145E2,4.764301E2,2.6741077E2,5.5123926E2,4.45659E1,6.1158856E2,3.3395615E2,2.3016956E2,4.181188E1,2.1610599E2,5.13048E1,3.9054767E2,1.6069157E2],"tree_param":{"num_deleted":"0","num_feature":"6","num_nodes":"23","size_leaf_vector":"1"}},{"base_weights":[1.5134326E-3,2.8248423E-1,-3.491881E-1,1.8526022E-1,5.8400655E-1,-4.398245E-1,-2.9683888E-2,2.353907E-1,5.6346696E-2,4.7299284E-1,8.141776E-2,-4.0003502E-1,-5.2188575E-1,-1.4902534E-1,2.521039E-1,1.9610757E-2,2.9123148E-2,-7.3415524E-4,1.4603875E-2,5.2022185E-2,3.4416266E-2,-4.398199E-2,-3.3866018E-2,-5.710068E-2,-4.4389658E-2,-1.0721182E-2,-2.4162848E-2,1.5268822E-1,5.3095143E-2,2.353966E-2,-4.5273826E-3],"categories":[],"categories_nodes":[],"categories_segments":[],"categories_sizes":[],"default_left":[0,0,0,0,0,0,0,0,0,0,0,0,0,0,0,0,0,0,0,0,0,0,0,0,0,0,0,0,0,0,0],"id":25,"left_children":[1,3,5,7,9,11,13,15,17,19,-1,21,23,25,27,-1,-1,-1,-1,-1,-1,-1,-1,-1,-1,-1,-1,29,-1,-1,-1],"loss_changes":[2.94302E2,4.850258E1,3.8458878E1,8.099514E0,9.9340515E0,3.1701965E0,9.946603E0,1.9249382E0,2.0164008E0,1.4931717E0,0E0,1.5632553E0,1.0285034E0,7.780185E-1,2.3594546E0,0E0,0E0,0E0,0E0,0E0,0E0,0E0,0E0,0E0,0E0,0E0,0E0,1.0962292E0,0E0,0E0,0E0],"parents":[2147483647,0,0,1,1,2,2,3,3,4,4,5,5,6,6,7,7,8,8,9,9,11,11,12,12,13,13,14,14,27,27],"right_children":[2,4,6,8,10,12,14,16,18,20,-1,22,24,26,28,-1,-1,-1,-1,-1,-1,-1,-1,-1,-1,-1,-1,30,-1,-1,-1],"split_conditions":[1E0,3E0,3E0,1E0,4E0,1E0,4E0,2E0,2E0,1E0,8.141776E-2,2E0,2E0,1E0,5E0,1.9610757E-2,2.9123148E-2,-7.3415524E-4,1.4603875E-2,5.2022185E-2,3.4416266E-2,-4.398199E-2,-3.3866018E-2,-5.710068E-2,-4.4389658E-2,-1.0721182E-2,-2.4162848E-2,1E0,5.3095143E-2,2.353966E-2,-4.5273826E-3],"split_indices":[1,5,5,0,5,0,5,5,5,0,0,5,5,0,5,0,0,0,0,0,0,0,0,0,0,0,0,0,0,0,0],"split_type":[0,0,0,0,0,0,0,0,0,0,0,0,0,0,0,0,0,0,0,0,0,0,0,0,0,0,0,0,0,0,0],"sum_hessian":[2.9847185E3,1.6572097E3,1.3275088E3,1.2543627E3,4.0284705E2,1.033851E3,2.9365775E2,9.025594E2,3.518033E2,2.7383078E2,1.2901627E2,7.002109E2,3.3364008E2,2.066215E2,8.703624E1,5.324799E2,3.7007944E2,2.062606E2,1.4554272E2,1.981509E2,7.5679886E1,4.2108548E2,2.7912543E2,2.0082814E2,1.3281195E2,1.4383347E2,6.2788033E1,6.5302086E1,2.173415E1,4.5925396E1,1.9376692E1],"tree_param":{"num_deleted":"0","num_feature":"6","num_nodes":"31","size_leaf_vector":"1"}},{"base_weights":[1.4792426E-3,1.6087714E-1,-2.1764243E-1,2.215174E-1,2.050268E-2,-1.7334509E-1,-3.2798043E-1,2.1184763E-2,6.073143E-2,7.4322236E-4,4.225892E-2,-1.827741E-2,2.8828276E-2,-3.3948943E-2,1.43779805E-2],"categories":[],"categories_nodes":[],"categories_segments":[],"categories_sizes":[],"default_left":[0,0,0,0,0,0,0,0,0,0,0,0,0,0,0],"id":26,"left_children":[1,3,5,7,9,11,13,-1,-1,-1,-1,-1,-1,-1,-1],"loss_changes":[1.0332915E2,1.4573513E1,6.032238E0,4.3325195E0,2.7178018E0,3.9311523E0,1.9803886E0,0E0,0E0,0E0,0E0,0E0,0E0,0E0,0E0],"parents":[2147483647,0,0,1,1,2,2,3,3,4,4,5,5,6,6],"right_children":[2,4,6,8,10,12,14,-1,-1,-1,-1,-1,-1,-1,-1],"split_conditions":[1E0,1E0,1E0,2E0,2E0,2E0,2E0,2.1184763E-2,6.073143E-2,7.4322236E-4,4.225892E-2,-1.827741E-2,2.8828276E-2,-3.3948943E-2,1.43779805E-2],"split_indices":[2,0,0,4,4,4,4,0,0,0,0,0,0,0,0],"split_type":[0,0,0,0,0,0,0,0,0,0,0,0,0,0,0],"sum_hessian":[2.956384E3,1.7115787E3,1.2448053E3,1.1948419E3,5.167368E2,8.9004895E2,3.5475635E2,1.1671373E3,2.770452E1,5.0145474E2,1.5282096E1,8.728251E2,1.7223871E1,3.4658157E2,8.174783E0],"tree_param":{"num_deleted":"0","num_feature":"6","num_nodes":"15","size_leaf_vector":"1"}},{"base_weights":[1.384768E-3,2.577072E-1,-3.184066E-1,4.3273464E-1,4.7701322E-3,-2.2913882E-1,-4.335663E-1,4.8268948E-2,3.0662686E-2,3.954662E-3,-8.937876E-3,-1.8898655E-2,-3.1098416E-2,-3.9544832E-2,-5.20308E-2],"categories":[],"categories_nodes":[],"categories_segments":[],"categories_sizes":[],"default_left":[0,0,0,0,0,0,0,0,0,0,0,0,0,0,0],"id":27,"left_children":[1,3,5,7,9,11,13,-1,-1,-1,-1,-1,-1,-1,-1],"loss_changes":[2.411503E2,7.229333E1,1.335643E1,5.9321136E0,2.1935563E0,2.371334E0,1.680397E0,0E0,0E0,0E0,0E0,0E0,0E0,0E0,0E0],"parents":[2147483647,0,0,1,1,2,2,3,3,4,4,5,5,6,6],"right_children":[2,4,6,8,10,12,14,-1,-1,-1,-1,-1,-1,-1,-1],"split_conditions":[1E0,1E0,1E0,1E0,1E0,1E0,1E0,4.8268948E-2,3.0662686E-2,3.954662E-3,-8.937876E-3,-1.8898655E-2,-3.1098416E-2,-3.9544832E-2,-5.20308E-2],"split_indices":[1,2,2,0,0,0,0,0,0,0,0,0,0,0,0],"split_type":[0,0,0,0,0,0,0,0,0,0,0,0,0,0,0],"sum_hessian":[2.939943E3,1.6320222E3,1.3079209E3,9.641434E2,6.6787885E2,7.384724E2,5.694485E2,6.8855835E2,2.75585E2,4.8814792E2,1.7973093E2,4.9764386E2,2.4082858E2,3.9946533E2,1.6998314E2],"tree_param":{"num_deleted":"0","num_feature":"6","num_nodes":"15","size_leaf_vector":"1"}},{"base_weights":[1.2834589E-3,-8.875841E-2,3.0043468E-1,4.687249E-2,-2.747794E-1,1.8884295E-1,5.5335146E-1,7.479209E-4,1.0522161E-1,-3.269744E-2,-1.9906466E-1,3.0775344E-1,3.0302802E-2,6.454144E-1,4.0779623E-1,1.0000437E-2,2.765373E-2,-2.0576542E-2,4.0103705E-3,2.9290995E-2,5.313138E-2,1.5907417E-3,3.6099687E-2,5.8815915E-2,7.8194183E-1,3.2711118E-1,6.4326644E-2,7.954358E-2,2.7138833E-2,3.365875E-2,1.7668702E-2],"categories":[],"categories_nodes":[],"categories_segments":[],"categories_sizes":[],"default_left":[0,0,0,0,0,0,0,0,0,0,0,0,0,0,0,0,0,0,0,0,0,0,0,0,0,0,0,0,0,0,0],"id":28,"left_children":[1,3,5,7,9,11,13,-1,15,-1,17,19,21,23,25,-1,-1,-1,-1,-1,-1,-1,-1,-1,27,29,-1,-1,-1,-1,-1],"loss_changes":[7.8574844E1,5.6584236E1,1.8942947E1,2.9818082E0,3.6719284E0,8.847174E0,2.4984856E0,0E0,4.3970394E-1,0E0,6.307478E-1,7.348213E-1,9.58026E-1,5.135155E-1,1.3582201E0,0E0,0E0,0E0,0E0,0E0,0E0,0E0,0E0,0E0,1.6702652E-2,3.1086445E-2,0E0,0E0,0E0,0E0,0E0],"parents":[2147483647,0,0,1,1,2,2,3,3,4,4,5,5,6,6,8,8,10,10,11,11,12,12,13,13,14,14,24,24,25,25],"right_children":[2,4,6,8,10,12,14,-1,16,-1,18,20,22,24,26,-1,-1,-1,-1,-1,-1,-1,-1,-1,28,30,-1,-1,-1,-1,-1],"split_conditions":[3E0,1E0,4E0,2E0,2E0,1E0,1E0,7.479209E-4,2E0,-3.269744E-2,2E0,2E0,2E0,5E0,5E0,1.0000437E-2,2.765373E-2,-2.0576542E-2,4.0103705E-3,2.9290995E-2,5.313138E-2,1.5907417E-3,3.6099687E-2,5.8815915E-2,6E0,2E0,6.4326644E-2,7.954358E-2,2.7138833E-2,3.365875E-2,1.7668702E-2],"split_indices":[5,2,5,5,5,2,2,0,4,0,4,4,4,5,5,0,0,0,0,0,0,0,0,0,5,4,0,0,0,0,0],"split_type":[0,0,0,0,0,0,0,0,0,0,0,0,0,0,0,0,0,0,0,0,0,0,0,0,0,0,0,0,0,0,0],"sum_hessian":[2.9150896E3,2.2412087E3,6.7388074E2,1.2965912E3,9.4461755E2,4.6878882E2,2.050919E2,7.746974E2,5.2189386E2,5.5719147E2,3.8742606E2,2.6733633E2,2.0145247E2,1.2352734E2,8.156457E1,5.080068E2,1.3887058E1,3.7700323E2,1.0422818E1,2.5285785E2,1.4478502E1,1.9405327E2,7.3991957E0,9.076948E1,3.2757866E1,6.252816E1,1.9036406E1,3.137074E1,1.3871238E0,5.7658253E1,4.8699093E0],"tree_param":{"num_deleted":"0","num_feature":"6","num_nodes":"31","size_leaf_vector":"1"}},{"base_weights":[1.3526285E-3,-1.03232525E-1,1.751704E-1,-5.8678556E-2,-2.1096252E-1,2.8368583E-1,-3.5418886E-1,-5.6282743E-3,-1.1212774E-1,-2.059847E-2,-1.2588368E-1,3.303507E-2,1.741963E-2,-7.856497E-1,5.241788E-2,-7.193201E-2,-9.412269E-2],"categories":[],"categories_nodes":[],"categories_segments":[],"categories_sizes":[],"default_left":[0,0,0,0,0,0,0,0,0,0,0,0,0,0,0,0,0],"id":29,"left_children":[1,3,5,7,9,11,13,-1,-1,-1,-1,-1,-1,15,-1,-1,-1],"loss_changes":[5.2627403E1,8.663094E0,6.257239E1,3.1956E0,2.4970493E0,4.5565643E0,7.0696304E1,0E0,0E0,0E0,0E0,0E0,0E0,6.1047363E-1,0E0,0E0,0E0],"parents":[2147483647,0,0,1,1,2,2,3,3,4,4,5,5,6,6,13,13],"right_children":[2,4,6,8,10,12,14,-1,-1,-1,-1,-1,-1,16,-1,-1,-1],"split_conditions":[1E0,1E0,2E0,2E0,2E0,1E0,2E0,-5.6282743E-3,-1.1212774E-1,-2.059847E-2,-1.2588368E-1,3.303507E-2,1.741963E-2,1E0,5.241788E-2,-7.193201E-2,-9.412269E-2],"split_indices":[3,0,3,4,4,0,4,0,0,0,0,0,0,0,0,0,0],"split_type":[0,0,0,0,0,0,0,0,0,0,0,0,0,0,0,0,0],"sum_hessian":[2.8929995E3,1.8064657E3,1.0865339E3,1.2790378E3,5.2742786E2,9.020776E2,1.8445633E2,1.277211E3,1.8267289E0,5.261251E2,1.3027335E0,6.3108813E2,2.7098944E2,1.2376673E2,6.06896E1,9.071452E1,3.3052208E1],"tree_param":{"num_deleted":"0","num_feature":"6","num_nodes":"17","size_leaf_vector":"1"}},{"base_weights":[1.1014298E-3,2.3554339E-1,-2.9060075E-1,1.5281403E-1,5.0700825E-1,-3.6729935E-1,-2.5024915E-2,4.4720486E-2,3.2025376E-1,4.023758E-1,7.400786E-1,-3.418708E-1,-7.3896095E-2,-1.2169918E-1,2.093908E-1,-4.7967845E-4,1.1577464E-2,4.101679E-1,-2.4823813E-1,3.167067E-2,5.412831E-1,6.5550375E-1,8.693296E-2,-4.3427235E-1,-1.4347813E-1,-7.211449E-2,-6.337231E-2,4.1266154E-2,5.5559576E-1,3.7082903E-2,4.6629477E-2,-1.7753681E-2,-3.256058E-2,6.2124427E-2,1.502575E-2,5.9357386E-2,7.936624E-2,-4.585576E-2,-3.960388E-2,-2.383053E-2,6.4605573E-4,-2.0185946E-2,2.464665E-2,-3.6450643E-3,2.6407609E-2,6.487424E-2,2.770915E-2],"categories":[],"categories_nodes":[],"categories_segments":[],"categories_sizes":[],"default_left":[0,0,0,0,0,0,0,0,0,0,0,0,0,0,0,0,0,0,0,0,0,0,0,0,0,0,0,0,0,0,0,0,0,0,0,0,0,0,0,0,0,0,0,0,0,0,0],"id":30,"left_children":[1,3,5,7,9,11,13,15,17,19,21,23,-1,25,27,-1,-1,29,31,-1,33,35,-1,37,39,41,-1,43,45,-1,-1,-1,-1,-1,-1,-1,-1,-1,-1,-1,-1,-1,-1,-1,-1,-1,-1],"loss_changes":[1.9687404E2,3.5766884E1,2.6119652E1,2.2151613E1,8.782852E0,9.153183E0,6.56391E0,2.6231794E0,2.4652233E1,2.912838E0,6.782837E-1,1.7047966E1,0E0,5.1566143E0,4.9019566E0,0E0,0E0,7.435684E-1,3.0437994E-1,0E0,2.9539032E0,1.5421104E-1,0E0,4.0920258E-1,4.239661E0,7.818321E0,0E0,1.0145483E0,5.3565407E-1,0E0,0E0,0E0,0E0,0E0,0E0,0E0,0E0,0E0,0E0,0E0,0E0,0E0,0E0,0E0,0E0,0E0,0E0],"parents":[2147483647,0,0,1,1,2,2,3,3,4,4,5,5,6,6,7,7,8,8,9,9,10,10,11,11,13,13,14,14,17,17,18,18,20,20,21,21,23,23,24,24,25,25,27,27,28,28],"right_children":[2,4,6,8,10,12,14,16,18,20,22,24,-1,26,28,-1,-1,30,32,-1,34,36,-1,38,40,42,-1,44,46,-1,-1,-1,-1,-1,-1,-1,-1,-1,-1,-1,-1,-1,-1,-1,-1,-1,-1],"split_conditions":[1E0,3E0,3E0,1E0,4E0,2E0,4E0,2E0,2E0,1E0,1E0,1E0,-7.3896095E-2,2E0,1E0,-4.7967845E-4,1.1577464E-2,2E0,2E0,3.167067E-2,2E0,5E0,8.693296E-2,2E0,2E0,1E0,-6.337231E-2,5E0,2E0,3.7082903E-2,4.6629477E-2,-1.7753681E-2,-3.256058E-2,6.2124427E-2,1.502575E-2,5.9357386E-2,7.936624E-2,-4.585576E-2,-3.960388E-2,-2.383053E-2,6.4605573E-4,-2.0185946E-2,2.464665E-2,-3.6450643E-3,2.6407609E-2,6.487424E-2,2.770915E-2],"split_indices":[1,5,5,3,5,3,5,5,3,3,3,3,0,3,3,0,0,5,5,0,3,5,0,5,5,3,0,5,3,0,0,0,0,0,0,0,0,0,0,0,0,0,0,0,0,0,0],"split_type":[0,0,0,0,0,0,0,0,0,0,0,0,0,0,0,0,0,0,0,0,0,0,0,0,0,0,0,0,0,0,0,0,0,0,0,0,0,0,0,0,0,0,0,0,0,0,0],"sum_hessian":[2.8768118E3,1.5950542E3,1.2817574E3,1.2236943E3,3.7135986E2,9.942376E2,2.8751987E2,7.4440094E2,4.7929343E2,2.581809E2,1.13178955E2,9.3236633E2,6.1871277E1,2.03908E2,8.361188E1,4.392337E2,3.051672E2,4.1408E2,6.521344E1,1.6172148E2,9.645943E1,7.208316E1,4.10958E1,6.352904E2,2.9707593E2,1.8694498E2,1.696302E1,5.7034084E1,2.6577795E1,2.4792107E2,1.6615892E2,3.5796257E1,2.9417183E1,7.959435E1,1.6865072E1,5.342957E1,1.8653591E1,3.817904E2,2.535E2,1.8162175E2,1.1545416E2,1.3310368E2,5.384129E1,4.2905067E1,1.4129017E1,1.892042E1,7.6573763E0],"tree_param":{"num_deleted":"0","num_feature":"6","num_nodes":"47","size_leaf_vector":"1"}},{"base_weights":[1.1633954E-3,2.147248E-1,-2.6458883E-1,1.22987535E-2,3.6173353E-1,-3.3205464E-1,-1.4255857E-1,4.3219645E-2,-3.7028402E-2,-3.266274E-2,-1.6114177E-1,-3.953297E-3,-5.862503E-1,-4.850399E-2,7.5659096E-2,-9.149408E-2,1.5971579E-2],"categories":[],"categories_nodes":[],"categories_segments":[],"categories_sizes":[],"default_left":[0,0,0,0,0,0,0,0,0,0,0,0,0,0,0,0,0],"id":31,"left_children":[1,3,5,-1,7,9,11,-1,13,-1,-1,-1,15,-1,-1,-1,-1],"loss_changes":[1.6169391E2,2.1258438E1,1.040345E1,0E0,1.705584E1,5.144371E0,2.071585E1,0E0,3.3074127E1,0E0,0E0,0E0,2.1091257E1,0E0,0E0,0E0,0E0],"parents":[2147483647,0,0,1,1,2,2,4,4,5,5,6,6,8,8,12,12],"right_children":[2,4,6,-1,8,10,12,-1,14,-1,-1,-1,16,-1,-1,-1,-1],"split_conditions":[1E0,1E0,1E0,1.22987535E-2,2E0,2E0,2E0,4.3219645E-2,2E0,-3.266274E-2,-1.6114177E-1,-3.953297E-3,2E0,-4.850399E-2,7.5659096E-2,-9.149408E-2,1.5971579E-2],"split_indices":[1,3,3,0,3,4,3,0,4,0,0,0,4,0,0,0,0],"split_type":[0,0,0,0,0,0,0,0,0,0,0,0,0,0,0,0,0],"sum_hessian":[2.847009E3,1.5786116E3,1.2683976E3,9.731668E2,6.0544476E2,8.1570483E2,4.5269278E2,5.1445465E2,9.0990135E1,8.135091E2,2.1957147E0,3.682694E2,8.442338E1,5.8407143E1,3.258299E1,5.8444717E1,2.5978659E1],"tree_param":{"num_deleted":"0","num_feature":"6","num_nodes":"17","size_leaf_vector":"1"}},{"base_weights":[9.846779E-4,1.22451425E-1,-1.6647652E-1,4.5786623E-2,2.566296E-1,-2.4928743E-1,-3.01312E-2,1.0834514E-2,-9.9301E-3,3.4007293E-1,-1.6932055E-1,-2.3343453E-2,-2.9005637E-2,4.7846194E-2,-4.3062776E-1,3.5561755E-2,3.047802E-2,-8.846631E-3,-3.6301028E-2,1.3457869E-2,-1.650436E-2,-4.6783905E-2,-3.2180164E-2],"categories":[],"categories_nodes":[],"categories_segments":[],"categories_sizes":[],"default_left":[0,0,0,0,0,0,0,0,0,0,0,0,0,0,0,0,0,0,0,0,0,0,0],"id":32,"left_children":[1,3,5,7,9,11,13,-1,-1,15,17,-1,-1,19,21,-1,-1,-1,-1,-1,-1,-1,-1],"loss_changes":[5.751663E1,1.6846909E1,1.3414524E1,9.488205E0,2.123019E1,4.1019058E-1,1.40840025E1,0E0,0E0,1.6506958E-1,1.506511E0,0E0,0E0,6.9986796E0,1.4704895E-1,0E0,0E0,0E0,0E0,0E0,0E0,0E0,0E0],"parents":[2147483647,0,0,1,1,2,2,3,3,4,4,5,5,6,6,9,9,10,10,13,13,14,14],"right_children":[2,4,6,8,10,12,14,-1,-1,16,18,-1,-1,20,22,-1,-1,-1,-1,-1,-1,-1,-1],"split_conditions":[1E0,1E0,1E0,1E0,2E0,1E0,2E0,1.0834514E-2,-9.9301E-3,1E0,1E0,-2.3343453E-2,-2.9005637E-2,1E0,1E0,3.5561755E-2,3.047802E-2,-8.846631E-3,-3.6301028E-2,1.3457869E-2,-1.650436E-2,-4.6783905E-2,-3.2180164E-2],"split_indices":[2,3,3,0,3,0,3,0,0,0,0,0,0,0,0,0,0,0,0,0,0,0,0],"split_type":[0,0,0,0,0,0,0,0,0,0,0,0,0,0,0,0,0,0,0,0,0,0,0],"sum_hessian":[2.8256228E3,1.6378727E3,1.1877501E3,1.0431779E3,5.946948E2,7.384286E2,4.493216E2,7.290718E2,3.1410608E2,4.9744693E2,9.724792E1,5.365271E2,2.0190147E2,3.768322E2,7.248937E1,3.390409E2,1.5840602E2,6.963576E1,2.7612156E1,2.6801093E2,1.088213E2,5.1560238E1,2.0929134E1],"tree_param":{"num_deleted":"0","num_feature":"6","num_nodes":"23","size_leaf_vector":"1"}},{"base_weights":[8.662404E-4,1.9530948E-1,-2.4095817E-1,1.1844299E-1,3.2149827E-1,-2.2081879E-1,-5.27287E-2,1.3296916E-2,8.079111E-3,3.793693E-1,-6.6235866E-3,-2.9518786E-1,-5.6944635E-2,4.489624E-2,2.0768661E-2,4.3852846E-3,-1.3426383E-2,-2.3838392E-2,-4.264603E-2,-7.283643E-3,-2.4182291E-3],"categories":[],"categories_nodes":[],"categories_segments":[],"categories_sizes":[],"default_left":[0,0,0,0,0,0,0,0,0,0,0,0,0,0,0,0,0,0,0,0,0],"id":33,"left_children":[1,3,5,7,9,11,-1,-1,-1,13,15,17,19,-1,-1,-1,-1,-1,-1,-1,-1],"loss_changes":[1.3209769E2,1.50664215E1,7.103836E0,5.19413E-1,1.1184982E1,1.4261059E1,0E0,0E0,0E0,5.8881836E0,5.810724E-1,5.9055634E0,1.8928957E-1,0E0,0E0,0E0,0E0,0E0,0E0,0E0,0E0],"parents":[2147483647,0,0,1,1,2,2,3,3,4,4,5,5,9,9,10,10,11,11,12,12],"right_children":[2,4,6,8,10,12,-1,-1,-1,14,16,18,20,-1,-1,-1,-1,-1,-1,-1,-1],"split_conditions":[1E0,1E0,2E0,1E0,2E0,1E0,-5.27287E-2,1.3296916E-2,8.079111E-3,1E0,1E0,1E0,1E0,4.489624E-2,2.0768661E-2,4.3852846E-3,-1.3426383E-2,-2.3838392E-2,-4.264603E-2,-7.283643E-3,-2.4182291E-3],"split_indices":[1,3,3,0,3,3,0,0,0,0,0,0,0,0,0,0,0,0,0,0,0],"split_type":[0,0,0,0,0,0,0,0,0,0,0,0,0,0,0,0,0,0,0,0,0],"sum_hessian":[2.807326E3,1.5562155E3,1.2511105E3,9.6831555E2,5.878999E2,1.1705493E3,8.0561195E1,6.969135E2,2.7140207E2,4.9962466E2,8.827522E1,8.04604E2,3.6594528E2,3.5436475E2,1.4525992E2,6.3729343E1,2.4545881E1,5.635582E2,2.410458E2,2.4559372E2,1.2035155E2],"tree_param":{"num_deleted":"0","num_feature":"6","num_nodes":"21","size_leaf_vector":"1"}},{"base_weights":[7.798548E-4,1.11964405E-1,-1.52574E-1,4.8255928E-2,2.2545612E-1,-2.20799E-1,-4.0645234E-2,1.0089688E-2,-7.422603E-3,2.965085E-1,-1.2835363E-1,-2.0839518E-2,-2.5308317E-2,2.3039108E-2,-3.7271386E-1,3.0953327E-2,2.6748091E-2,-5.829176E-3,-2.9690638E-2,9.774336E-3,-1.5897438E-2,-4.0848948E-2,-2.6890798E-2],"categories":[],"categories_nodes":[],"categories_segments":[],"categories_sizes":[],"default_left":[0,0,0,0,0,0,0,0,0,0,0,0,0,0,0,0,0,0,0,0,0,0,0],"id":34,"left_children":[1,3,5,7,9,11,13,-1,-1,15,17,-1,-1,19,21,-1,-1,-1,-1,-1,-1,-1,-1],"loss_changes":[4.761015E1,1.1692915E1,8.9529705E0,6.7000723E0,1.4661291E1,2.3915482E-1,9.433419E0,0E0,0E0,1.0046768E-1,1.1397312E0,0E0,0E0,5.113048E0,1.5670681E-1,0E0,0E0,0E0,0E0,0E0,0E0,0E0,0E0],"parents":[2147483647,0,0,1,1,2,2,3,3,4,4,5,5,6,6,9,9,10,10,13,13,14,14],"right_children":[2,4,6,8,10,12,14,-1,-1,16,18,-1,-1,20,22,-1,-1,-1,-1,-1,-1,-1,-1],"split_conditions":[1E0,1E0,1E0,1E0,2E0,1E0,2E0,1.0089688E-2,-7.422603E-3,1E0,1E0,-2.0839518E-2,-2.5308317E-2,1E0,1E0,3.0953327E-2,2.6748091E-2,-5.829176E-3,-2.9690638E-2,9.774336E-3,-1.5897438E-2,-4.0848948E-2,-2.6890798E-2],"split_indices":[2,3,3,0,3,0,3,0,0,0,0,0,0,0,0,0,0,0,0,0,0,0,0],"split_type":[0,0,0,0,0,0,0,0,0,0,0,0,0,0,0,0,0,0,0,0,0,0,0],"sum_hessian":[2.7902876E3,1.6176962E3,1.1725916E3,1.0370015E3,5.8069464E2,7.279218E2,4.4466974E2,7.25408E2,3.115935E2,4.837163E2,9.697836E1,5.31262E2,1.9665976E2,3.738946E2,7.077514E1,3.2722562E2,1.5649068E2,6.9454315E1,2.7524048E1,2.654204E2,1.08474174E2,5.0452187E1,2.032295E1],"tree_param":{"num_deleted":"0","num_feature":"6","num_nodes":"23","size_leaf_vector":"1"}},{"base_weights":[6.822179E-4,1.7749426E-1,-2.1911088E-1,1.13127105E-1,2.8513995E-1,-2.0214117E-1,-4.624289E-2,1.230431E-2,8.737353E-3,3.3374578E-1,1.6195405E-2,-2.6296306E-1,-6.917935E-2,3.97741E-2,1.7951146E-2,5.9550293E-3,-9.42381E-3,-2.1297392E-2,-3.806571E-2,-8.793662E-3,-3.0541285E-3],"categories":[],"categories_nodes":[],"categories_segments":[],"categories_sizes":[],"default_left":[0,0,0,0,0,0,0,0,0,0,0,0,0,0,0,0,0,0,0,0,0],"id":35,"left_children":[1,3,5,7,9,11,-1,-1,-1,13,15,17,19,-1,-1,-1,-1,-1,-1,-1,-1],"loss_changes":[1.0788943E2,1.0628033E1,5.0169296E0,2.3554897E-1,7.5119667E0,9.352695E0,0E0,0E0,0E0,4.735317E0,4.3207815E-1,4.5945473E0,2.6188338E-1,0E0,0E0,0E0,0E0,0E0,0E0,0E0,0E0],"parents":[2147483647,0,0,1,1,2,2,3,3,4,4,5,5,9,9,10,10,11,11,12,12],"right_children":[2,4,6,8,10,12,-1,-1,-1,14,16,18,20,-1,-1,-1,-1,-1,-1,-1,-1],"split_conditions":[1E0,1E0,2E0,1E0,2E0,1E0,-4.624289E-2,1.230431E-2,8.737353E-3,1E0,1E0,1E0,1E0,3.97741E-2,1.7951146E-2,5.9550293E-3,-9.42381E-3,-2.1297392E-2,-3.806571E-2,-8.793662E-3,-3.0541285E-3],"split_indices":[1,3,3,0,3,3,0,0,0,0,0,0,0,0,0,0,0,0,0,0,0],"split_type":[0,0,0,0,0,0,0,0,0,0,0,0,0,0,0,0,0,0,0,0,0],"sum_hessian":[2.7742136E3,1.5375376E3,1.236676E3,9.63475E2,5.740626E2,1.1577612E3,7.891489E1,6.929054E2,2.7056958E2,4.8598972E2,8.807294E1,7.937099E2,3.640513E2,3.423587E2,1.4363101E2,6.357493E1,2.4498009E1,5.590638E2,2.3464612E2,2.4421738E2,1.19833916E2],"tree_param":{"num_deleted":"0","num_feature":"6","num_nodes":"21","size_leaf_vector":"1"}},{"base_weights":[6.1271596E-4,1.6077612E-1,-1.984478E-1,3.0290616E-1,-3.3746906E-2,-1.4479573E-1,-2.729285E-1,3.1901845E-1,4.0116664E-3,-1.3197987E-2,1.1784649E-1,-2.1471467E-2,-1.8503048E-2,-2.4591057E-1,-6.531951E-2,2.6268005E-2,4.4040058E-2,1.4141752E-2,-2.115624E-3,3.1610322E-3,-2.4595283E-2,-2.7178107E-2,-1.896664E-2],"categories":[],"categories_nodes":[],"categories_segments":[],"categories_sizes":[],"default_left":[0,0,0,0,0,0,0,0,0,0,0,0,0,0,0,0,0,0,0,0,0,0,0],"id":36,"left_children":[1,3,5,7,9,11,13,15,-1,-1,17,-1,19,21,-1,-1,-1,-1,-1,-1,-1,-1,-1],"loss_changes":[8.8031136E1,4.2312523E1,4.879936E0,3.73098E0,9.648352E0,6.3337555E0,5.123825E0,5.5805206E0,0E0,0E0,8.380892E-1,0E0,2.9354587E0,6.495533E-1,0E0,0E0,0E0,0E0,0E0,0E0,0E0,0E0,0E0],"parents":[2147483647,0,0,1,1,2,2,3,3,4,4,5,5,6,6,7,7,10,10,12,12,13,13],"right_children":[2,4,6,8,10,12,14,16,-1,-1,18,-1,20,22,-1,-1,-1,-1,-1,-1,-1,-1,-1],"split_conditions":[1E0,1E0,1E0,2E0,1E0,1E0,2E0,1E0,4.0116664E-3,-1.3197987E-2,2E0,-2.1471467E-2,2E0,1E0,-6.531951E-2,2.6268005E-2,4.4040058E-2,1.4141752E-2,-2.115624E-3,3.1610322E-3,-2.4595283E-2,-2.7178107E-2,-1.896664E-2],"split_indices":[1,2,2,3,3,3,3,3,0,0,3,0,3,3,0,0,0,0,0,0,0,0,0],"split_type":[0,0,0,0,0,0,0,0,0,0,0,0,0,0,0,0,0,0,0,0,0,0,0],"sum_hessian":[2.7591357E3,1.5290553E3,1.2300804E3,8.831885E2,6.458669E2,7.167295E2,5.133509E2,8.319646E2,5.1223827E1,3.9198734E2,2.5387956E2,4.6087625E2,2.5585326E2,4.808343E2,3.251661E1,5.7038824E2,2.6157635E2,2.1705556E2,3.6824017E1,2.1036513E2,4.5488132E1,3.26721E2,1.5411328E2],"tree_param":{"num_deleted":"0","num_feature":"6","num_nodes":"23","size_leaf_vector":"1"}},{"base_weights":[5.625964E-4,-7.870964E-2,2.6642573E-1,1.8002365E-2,-2.136204E-1,1.6739327E-1,4.9874216E-1,-1.5555576E-3,6.807808E-2,-2.623686E-2,-1.4399795E-1,2.5028655E-1,5.996193E-2,4.308454E-1,6.916514E-1,6.03917E-3,3.144799E-2,-1.5222042E-2,1.2756112E-2,2.3208296E-2,5.2143693E-2,4.46758E-3,3.9577242E-2,5.1439513E-2,3.1162405E-2,7.006204E-2,1.4462881E-2],"categories":[],"categories_nodes":[],"categories_segments":[],"categories_sizes":[],"default_left":[0,0,0,0,0,0,0,0,0,0,0,0,0,0,0,0,0,0,0,0,0,0,0,0,0,0,0],"id":37,"left_children":[1,3,5,7,9,11,13,-1,15,-1,17,19,21,23,25,-1,-1,-1,-1,-1,-1,-1,-1,-1,-1,-1,-1],"loss_changes":[5.7766033E1,2.7551846E1,1.4400299E1,2.0691824E0,2.9545403E0,3.9290924E0,2.159832E0,0E0,9.1662335E-1,0E0,8.351064E-1,1.1113873E0,9.79248E-1,1.2486744E0,1.3024712E-1,0E0,0E0,0E0,0E0,0E0,0E0,0E0,0E0,0E0,0E0,0E0,0E0],"parents":[2147483647,0,0,1,1,2,2,3,3,4,4,5,5,6,6,8,8,10,10,11,11,12,12,13,13,14,14],"right_children":[2,4,6,8,10,12,14,-1,16,-1,18,20,22,24,26,-1,-1,-1,-1,-1,-1,-1,-1,-1,-1,-1,-1],"split_conditions":[3E0,1E0,4E0,2E0,2E0,1E0,5E0,-1.5555576E-3,2E0,-2.623686E-2,2E0,2E0,2E0,1E0,7E0,6.03917E-3,3.144799E-2,-1.5222042E-2,1.2756112E-2,2.3208296E-2,5.2143693E-2,4.46758E-3,3.9577242E-2,5.1439513E-2,3.1162405E-2,7.006204E-2,1.4462881E-2],"split_indices":[5,2,5,5,5,2,5,0,4,0,4,4,4,2,5,0,0,0,0,0,0,0,0,0,0,0,0],"split_type":[0,0,0,0,0,0,0,0,0,0,0,0,0,0,0,0,0,0,0,0,0,0,0,0,0,0,0],"sum_hessian":[2.7389058E3,2.1103638E3,6.285419E2,1.2297051E3,8.8065875E2,4.418917E2,1.8665019E2,7.366996E2,4.930055E2,5.163515E2,3.6430725E2,2.4868121E2,1.9321046E2,1.4045038E2,4.6199814E1,4.792991E2,1.3706389E1,3.5402722E2,1.0280034E1,2.3477556E2,1.3905657E1,1.8588213E2,7.3283353E0,8.063041E1,5.9819973E1,4.517828E1,1.0215319E0],"tree_param":{"num_deleted":"0","num_feature":"6","num_nodes":"27","size_leaf_vector":"1"}},{"base_weights":[6.6559814E-4,8.446956E-2,-1.15103975E-1,3.596432E-2,1.7306247E-1,-1.668116E-1,-3.120169E-2,8.045882E-3,-6.733925E-3,2.3094839E-1,-1.0688281E-1,-1.5688581E-2,-1.9324163E-2,1.8273767E-2,-2.980902E-1,2.424938E-2,2.0606387E-2,-4.3792697E-3,-2.5896007E-2,8.215095E-3,-1.3744843E-2,-3.325857E-2,-1.9921847E-2],"categories":[],"categories_nodes":[],"categories_segments":[],"categories_sizes":[],"default_left":[0,0,0,0,0,0,0,0,0,0,0,0,0,0,0,0,0,0,0,0,0,0,0],"id":38,"left_children":[1,3,5,7,9,11,13,-1,-1,15,17,-1,-1,19,21,-1,-1,-1,-1,-1,-1,-1,-1],"loss_changes":[2.6428902E1,6.784218E0,4.9574156E0,4.7047486E0,9.080124E0,1.5528488E-1,5.7809343E0,0E0,0E0,8.31604E-2,9.138944E-1,0E0,0E0,3.6910195E0,1.672349E-1,0E0,0E0,0E0,0E0,0E0,0E0,0E0,0E0],"parents":[2147483647,0,0,1,1,2,2,3,3,4,4,5,5,6,6,9,9,10,10,13,13,14,14],"right_children":[2,4,6,8,10,12,14,-1,-1,16,18,-1,-1,20,22,-1,-1,-1,-1,-1,-1,-1,-1],"split_conditions":[1E0,1E0,1E0,1E0,2E0,1E0,2E0,8.045882E-3,-6.733925E-3,1E0,1E0,-1.5688581E-2,-1.9324163E-2,1E0,1E0,2.424938E-2,2.0606387E-2,-4.3792697E-3,-2.5896007E-2,8.215095E-3,-1.3744843E-2,-3.325857E-2,-1.9921847E-2],"split_indices":[2,3,3,0,3,0,3,0,0,0,0,0,0,0,0,0,0,0,0,0,0,0,0],"split_type":[0,0,0,0,0,0,0,0,0,0,0,0,0,0,0,0,0,0,0,0,0,0,0],"sum_hessian":[2.7220796E3,1.579194E3,1.1428857E3,1.0213847E3,5.578092E2,7.064957E2,4.3639008E2,7.140522E2,3.0733255E2,4.6237607E2,9.543316E1,5.186522E2,1.8784352E2,3.6892984E2,6.746022E1,3.09866E2,1.5251006E2,6.836112E1,2.7072037E1,2.6195035E2,1.06979485E2,4.8259193E1,1.920103E1],"tree_param":{"num_deleted":"0","num_feature":"6","num_nodes":"23","size_leaf_vector":"1"}},{"base_weights":[5.7995867E-4,1.4787051E-1,-1.8198106E-1,9.794212E-2,2.3326236E-1,-1.6803844E-1,-3.8598515E-2,1.0482905E-2,8.01043E-3,2.725861E-1,2.1290537E-2,-2.1431008E-1,-6.822827E-2,3.3377334E-2,1.2904028E-2,6.0456158E-3,-7.864705E-3,-1.692151E-2,-3.2289565E-2,-8.8806115E-3,-2.5755025E-3],"categories":[],"categories_nodes":[],"categories_segments":[],"categories_sizes":[],"default_left":[0,0,0,0,0,0,0,0,0,0,0,0,0,0,0,0,0,0,0,0,0],"id":39,"left_children":[1,3,5,7,9,11,-1,-1,-1,13,15,17,19,-1,-1,-1,-1,-1,-1,-1,-1],"loss_changes":[7.2913574E1,6.375656E0,3.3791542E0,1.0815716E-1,4.6038113E0,5.227886E0,0E0,0E0,0E0,4.053276E0,3.4771603E-1,3.740837E0,3.1325066E-1,0E0,0E0,0E0,0E0,0E0,0E0,0E0,0E0],"parents":[2147483647,0,0,1,1,2,2,3,3,4,4,5,5,9,9,10,10,11,11,12,12],"right_children":[2,4,6,8,10,12,-1,-1,-1,14,16,18,20,-1,-1,-1,-1,-1,-1,-1,-1],"split_conditions":[1E0,1E0,2E0,1E0,2E0,1E0,-3.8598515E-2,1.0482905E-2,8.01043E-3,1E0,1E0,1E0,1E0,3.3377334E-2,1.2904028E-2,6.0456158E-3,-7.864705E-3,-1.692151E-2,-3.2289565E-2,-8.8806115E-3,-2.5755025E-3],"split_indices":[1,3,3,0,3,3,0,0,0,0,0,0,0,0,0,0,0,0,0,0,0],"split_type":[0,0,0,0,0,0,0,0,0,0,0,0,0,0,0,0,0,0,0,0,0],"sum_hessian":[2.7095986E3,1.4997709E3,1.2098278E3,9.477632E2,5.520077E2,1.134139E3,7.568878E1,6.8025104E2,2.6751212E2,4.6538605E2,8.662162E1,7.7411487E2,3.600241E2,3.2537003E2,1.4001602E2,6.251644E1,2.4105183E1,5.4877155E2,2.2534334E2,2.4178899E2,1.1823512E2],"tree_param":{"num_deleted":"0","num_feature":"6","num_nodes":"21","size_leaf_vector":"1"}},{"base_weights":[5.181282E-4,1.3381116E-1,-1.6466951E-1,5.8233704E-2,3.9788195E-1,-2.3839708E-1,7.383657E-2,2.4979379E-2,1.06823444E-1,2.93925E-1,6.467414E-1,-2.787875E-1,-1.7920329E-1,-7.1407477E-3,2.6398206E-1,5.0306222E-3,-3.827794E-3,1.1822205E-2,7.879957E-3,3.2476302E-2,2.1720713E-2,5.909542E-1,7.858255E-2,-2.5427839E-2,-3.3402514E-2,-1.6905485E-2,-2.0066388E-2,6.4559415E-4,-3.900997E-3,1.8812479E-1,4.8405852E-2,6.390145E-2,4.407266E-2,2.3735134E-2,6.787756E-3],"categories":[],"categories_nodes":[],"categories_segments":[],"categories_sizes":[],"default_left":[0,0,0,0,0,0,0,0,0,0,0,0,0,0,0,0,0,0,0,0,0,0,0,0,0,0,0,0,0,0,0,0,0,0,0],"id":40,"left_children":[1,3,5,7,9,11,13,15,17,19,21,23,25,27,29,-1,-1,-1,-1,-1,-1,31,-1,-1,-1,-1,-1,-1,-1,33,-1,-1,-1,-1,-1],"loss_changes":[5.9432915E1,2.979049E1,2.121405E1,1.8758881E0,8.404972E0,2.15205E0,4.3962564E0,1.1098273E0,1.4148092E-1,4.8820496E-1,2.8870392E-1,6.537895E-1,4.8042297E-2,8.7404266E-2,1.3324108E0,0E0,0E0,0E0,0E0,0E0,0E0,2.4763489E-1,0E0,0E0,0E0,0E0,0E0,0E0,0E0,3.6891794E-1,0E0,0E0,0E0,0E0,0E0],"parents":[2147483647,0,0,1,1,2,2,3,3,4,4,5,5,6,6,7,7,8,8,9,9,10,10,11,11,12,12,13,13,14,14,21,21,29,29],"right_children":[2,4,6,8,10,12,14,16,18,20,22,24,26,28,30,-1,-1,-1,-1,-1,-1,32,-1,-1,-1,-1,-1,-1,-1,34,-1,-1,-1,-1,-1],"split_conditions":[1E0,3E0,3E0,2E0,4E0,2E0,4E0,1E0,1E0,1E0,5E0,1E0,1E0,1E0,5E0,5.0306222E-3,-3.827794E-3,1.1822205E-2,7.879957E-3,3.2476302E-2,2.1720713E-2,1E0,7.858255E-2,-2.5427839E-2,-3.3402514E-2,-1.6905485E-2,-2.0066388E-2,6.4559415E-4,-3.900997E-3,1E0,4.8405852E-2,6.390145E-2,4.407266E-2,2.3735134E-2,6.787756E-3],"split_indices":[1,5,5,5,5,5,5,0,0,0,5,0,0,0,5,0,0,0,0,0,0,0,0,0,0,0,0,0,0,0,0,0,0,0,0],"split_type":[0,0,0,0,0,0,0,0,0,0,0,0,0,0,0,0,0,0,0,0,0,0,0,0,0,0,0,0,0,0,0,0,0,0,0],"sum_hessian":[2.6972422E3,1.4928352E3,1.2044071E3,1.1616031E3,3.3123206E2,9.200114E2,2.8439563E2,6.9052734E2,4.7107584E2,2.3517331E2,9.605874E1,5.446584E2,3.7535303E2,2.0012904E2,8.426658E1,4.9324686E2,1.972805E2,3.3258112E2,1.3849472E2,1.654391E2,6.9734215E1,7.230557E1,2.3753166E1,3.811461E2,1.6351231E2,2.6086902E2,1.14484024E2,1.4083893E2,5.929012E1,6.404573E1,2.0220848E1,5.231538E1,1.999019E1,4.4751568E1,1.9294163E1],"tree_param":{"num_deleted":"0","num_feature":"6","num_nodes":"35","size_leaf_vector":"1"}},{"base_weights":[6.1040337E-4,1.2149695E-1,-1.4925204E-1,2.3904185E-1,-3.5617296E-2,-1.1435589E-1,-1.9930403E-1,2.7506886E-2,1.561812E-2,-2.774201E-3,-5.6637838E-3,-1.0169251E-2,-1.4146753E-2,-1.7159892E-2,-2.6947463E-2],"categories":[],"categories_nodes":[],"categories_segments":[],"categories_sizes":[],"default_left":[0,0,0,0,0,0,0,0,0,0,0,0,0,0,0],"id":41,"left_children":[1,3,5,7,9,11,13,-1,-1,-1,-1,-1,-1,-1,-1],"loss_changes":[4.859005E1,2.7425585E1,2.0688496E0,2.4925537E0,1.0375005E-1,2.2866726E-1,9.075146E-1,0E0,0E0,0E0,0E0,0E0,0E0,0E0,0E0],"parents":[2147483647,0,0,1,1,2,2,3,3,4,4,5,5,6,6],"right_children":[2,4,6,8,10,12,14,-1,-1,-1,-1,-1,-1,-1,-1],"split_conditions":[1E0,1E0,1E0,1E0,1E0,1E0,1E0,2.7506886E-2,1.561812E-2,-2.774201E-3,-5.6637838E-3,-1.0169251E-2,-1.4146753E-2,-1.7159892E-2,-2.6947463E-2],"split_indices":[1,2,2,0,0,0,0,0,0,0,0,0,0,0,0],"split_type":[0,0,0,0,0,0,0,0,0,0,0,0,0,0,0],"sum_hessian":[2.6801086E3,1.4835734E3,1.1965353E3,8.4835547E2,6.352179E2,7.069415E2,4.895937E2,5.896582E2,2.5869727E2,4.6378278E2,1.7143513E2,4.8510696E2,2.2183458E2,3.5347748E2,1.3611621E2],"tree_param":{"num_deleted":"0","num_feature":"6","num_nodes":"15","size_leaf_vector":"1"}},{"base_weights":[5.633959E-4,-6.661127E-2,2.2957635E-1,7.522211E-3,-1.712376E-1,1.4301431E-1,4.4124618E-1,3.708697E-3,3.200899E-2,-2.1480324E-2,-1.09849915E-1,1.2462327E-1,4.8403632E-2,3.7759557E-1,6.292292E-2,-2.0415073E-3,4.0888116E-3,-1.1846977E-2,1.665377E-2,1.871529E-2,4.7005527E-3,4.5143786E-1,2.7697695E-2,4.2589415E-2,6.114774E-2],"categories":[],"categories_nodes":[],"categories_segments":[],"categories_sizes":[],"default_left":[0,0,0,0,0,0,0,0,0,0,0,0,0,0,0,0,0,0,0,0,0,0,0,0,0],"id":42,"left_children":[1,3,5,7,9,11,13,15,-1,-1,17,19,-1,21,-1,-1,-1,-1,-1,-1,-1,23,-1,-1,-1],"loss_changes":[4.1058685E1,1.6007528E1,1.1027727E1,1.4396632E0,2.265295E0,2.6434126E0,1.8588562E0,1.0728434E0,0E0,0E0,8.70986E-1,1.9829702E0,0E0,8.6605835E-1,0E0,0E0,0E0,0E0,0E0,0E0,0E0,4.758835E-2,0E0,0E0,0E0],"parents":[2147483647,0,0,1,1,2,2,3,3,4,4,5,5,6,6,7,7,10,10,11,11,13,13,21,21],"right_children":[2,4,6,8,10,12,14,16,-1,-1,18,20,-1,22,-1,-1,-1,-1,-1,-1,-1,24,-1,-1,-1],"split_conditions":[3E0,1E0,4E0,2E0,2E0,2E0,5E0,2E0,3.200899E-2,-2.1480324E-2,2E0,1E0,4.8403632E-2,1E0,6.292292E-2,-2.0415073E-3,4.0888116E-3,-1.1846977E-2,1.665377E-2,1.871529E-2,4.7005527E-3,2E0,2.7697695E-2,4.2589415E-2,6.114774E-2],"split_indices":[5,2,5,4,5,4,5,5,0,0,4,2,0,2,0,0,0,0,0,0,0,4,0,0,0],"split_type":[0,0,0,0,0,0,0,0,0,0,0,0,0,0,0,0,0,0,0,0,0,0,0,0,0],"sum_hessian":[2.66695E3,2.0626401E3,6.0430975E2,1.2077859E3,8.5485425E2,4.3009766E2,1.742121E2,1.1942274E3,1.3558429E1,4.9854654E2,3.5630768E2,4.0938528E2,2.0712374E1,1.3239284E2,4.1819256E1,7.2455365E2,4.6967383E2,3.460855E2,1.022219E1,2.2594806E2,1.8343723E2,7.4345406E1,5.8047436E1,6.7269745E1,7.075661E0],"tree_param":{"num_deleted":"0","num_feature":"6","num_nodes":"25","size_leaf_vector":"1"}},{"base_weights":[6.560721E-4,-6.014342E-2,2.0994148E-1,6.8040295E-3,-1.5520689E-1,1.2975709E-1,4.104384E-1,2.103273E-2,-2.4072036E-1,-1.9986269E-1,-8.660063E-2,1.529688E-1,-1.5059656E-2,2.9999712E-1,6.4172363E-1,-3.147045E-2,1.3182324E-1,-1.46392975E-2,-3.3154566E-2,-2.45546E-2,-1.3639447E-2,-4.118355E-2,-3.7462598E-1,8.826541E-2,3.101986E-1,2.4454874E-1,4.60913E-2,7.826496E-2,4.4640373E-2,-5.3963135E-3,2.3088184E-4,7.395518E-3,2.2383992E-2,-9.309145E-3,3.7527306E-3,-3.0976078E-2,-4.212832E-2,1.5466394E-2,2.6944466E-4,3.7451487E-2,2.3334296E-2,2.903234E-2,1.786214E-2],"categories":[],"categories_nodes":[],"categories_segments":[],"categories_sizes":[],"default_left":[0,0,0,0,0,0,0,0,0,0,0,0,0,0,0,0,0,0,0,0,0,0,0,0,0,0,0,0,0,0,0,0,0,0,0,0,0,0,0,0,0,0,0],"id":43,"left_children":[1,3,5,7,9,11,13,15,17,19,21,23,-1,25,27,29,31,-1,-1,-1,-1,33,35,37,39,41,-1,-1,-1,-1,-1,-1,-1,-1,-1,-1,-1,-1,-1,-1,-1,-1,-1],"loss_changes":[3.3787113E1,1.3095898E1,9.556421E0,4.2605543E0,2.587679E0,2.8111057E0,4.15749E0,6.655812E0,5.148623E-1,1.4576263E0,4.393035E0,4.0030403E0,0E0,9.3245125E-1,1.1414165E0,5.902149E-1,1.9422507E0,0E0,0E0,0E0,0E0,1.1974487E0,8.049488E-3,1.6022503E0,4.8158264E-1,2.174778E-1,0E0,0E0,0E0,0E0,0E0,0E0,0E0,0E0,0E0,0E0,0E0,0E0,0E0,0E0,0E0,0E0,0E0],"parents":[2147483647,0,0,1,1,2,2,3,3,4,4,5,5,6,6,7,7,8,8,9,9,10,10,11,11,13,13,14,14,15,15,16,16,21,21,22,22,23,23,24,24,25,25],"right_children":[2,4,6,8,10,12,14,16,18,20,22,24,-1,26,28,30,32,-1,-1,-1,-1,34,36,38,40,42,-1,-1,-1,-1,-1,-1,-1,-1,-1,-1,-1,-1,-1,-1,-1,-1,-1],"split_conditions":[3E0,1E0,4E0,2E0,1E0,2E0,1E0,1E0,2E0,2E0,2E0,1E0,-1.5059656E-2,5E0,1E0,2E0,2E0,-1.46392975E-2,-3.3154566E-2,-2.45546E-2,-1.3639447E-2,2E0,2E0,1E0,1E0,1E0,4.60913E-2,7.826496E-2,4.4640373E-2,-5.3963135E-3,2.3088184E-4,7.395518E-3,2.2383992E-2,-9.309145E-3,3.7527306E-3,-3.0976078E-2,-4.212832E-2,1.5466394E-2,2.6944466E-4,3.7451487E-2,2.3334296E-2,2.903234E-2,1.786214E-2],"split_indices":[5,2,5,3,3,3,3,3,5,5,3,3,0,5,2,5,5,0,0,0,0,5,5,2,2,2,0,0,0,0,0,0,0,0,0,0,0,0,0,0,0,0,0],"split_type":[0,0,0,0,0,0,0,0,0,0,0,0,0,0,0,0,0,0,0,0,0,0,0,0,0,0,0,0,0,0,0,0,0,0,0,0,0,0,0,0,0,0,0],"sum_hessian":[2.653299E3,2.0565605E3,5.9673865E2,1.2072769E3,8.492836E2,4.274403E2,1.6929831E2,1.1425155E3,6.4761375E1,5.132779E2,3.360057E2,3.951763E2,3.2264E1,1.16138145E2,5.3160168E1,7.756527E2,3.6686276E2,3.3049423E1,3.1711952E1,2.9678705E2,2.1649083E2,2.912268E2,4.4778915E1,2.8107104E2,1.1410526E2,8.824903E1,2.7889114E1,2.9133173E1,2.4026995E1,4.6525482E2,3.1039786E2,2.2633032E2,1.4053244E2,1.7538316E2,1.1584364E2,2.1929913E1,2.2849003E1,1.5781082E2,1.2326024E2,6.0011757E1,5.4093502E1,5.0076347E1,3.8172688E1],"tree_param":{"num_deleted":"0","num_feature":"6","num_nodes":"43","size_leaf_vector":"1"}},{"base_weights":[6.897132E-4,-5.446508E-2,1.9214426E-1,-4.213874E-2,-2.7245834E-1,1.17833145E-1,3.819115E-1,-8.9226626E-2,5.004021E-2,-2.0958586E-1,-4.269216E-2,1.3905379E-1,-1.3534662E-1,2.7599898E-1,6.10879E-1,-1.1667365E-1,-4.950916E-2,8.770915E-4,1.2710777E-1,-1.0174682E-2,-3.2374013E-2,7.980762E-2,2.851368E-2,-1.7393861E-2,-3.8342369E-3,2.2380546E-1,4.3022013E-1,5.2775342E-2,8.309276E-2,-8.817834E-3,-1.8852694E-2,-5.677627E-3,-3.1416162E-3,6.8671815E-4,-1.223208E-3,1.7370066E-2,2.4853481E-3,1.1471648E-2,-6.2969426E-4,2.9941773E-2,3.0013798E-3,3.5211816E-2,5.863461E-2],"categories":[],"categories_nodes":[],"categories_segments":[],"categories_sizes":[],"default_left":[0,0,0,0,0,0,0,0,0,0,0,0,0,0,0,0,0,0,0,0,0,0,0,0,0,0,0,0,0,0,0,0,0,0,0,0,0,0,0,0,0,0,0],"id":44,"left_children":[1,3,5,7,9,11,13,15,17,19,-1,21,23,25,27,29,31,33,35,-1,-1,37,-1,-1,-1,39,41,-1,-1,-1,-1,-1,-1,-1,-1,-1,-1,-1,-1,-1,-1,-1,-1],"loss_changes":[2.7862621E1,5.492899E0,8.276875E0,8.425187E0,9.734297E-1,2.3049507E0,3.847639E0,1.3944244E0,2.487627E0,9.488139E-1,0E0,3.3794656E0,1.1841768E-1,8.298712E-1,5.044975E-1,1.5370293E0,6.745958E-2,3.164121E-2,1.2139926E0,0E0,0E0,8.455434E-1,0E0,0E0,0E0,1.2812176E0,1.3507795E-1,0E0,0E0,0E0,0E0,0E0,0E0,0E0,0E0,0E0,0E0,0E0,0E0,0E0,0E0,0E0,0E0],"parents":[2147483647,0,0,1,1,2,2,3,3,4,4,5,5,6,6,7,7,8,8,9,9,11,11,12,12,13,13,14,14,15,15,16,16,17,17,18,18,21,21,25,25,26,26],"right_children":[2,4,6,8,10,12,14,16,18,20,-1,22,24,26,28,30,32,34,36,-1,-1,38,-1,-1,-1,40,42,-1,-1,-1,-1,-1,-1,-1,-1,-1,-1,-1,-1,-1,-1,-1,-1],"split_conditions":[3E0,2E0,4E0,1E0,1E0,2E0,1E0,2E0,2E0,2E0,-4.269216E-2,1E0,1E0,5E0,5E0,1E0,1E0,1E0,1E0,-1.0174682E-2,-3.2374013E-2,1E0,2.851368E-2,-1.7393861E-2,-3.8342369E-3,1E0,1E0,5.2775342E-2,8.309276E-2,-8.817834E-3,-1.8852694E-2,-5.677627E-3,-3.1416162E-3,6.8671815E-4,-1.223208E-3,1.7370066E-2,2.4853481E-3,1.1471648E-2,-6.2969426E-4,2.9941773E-2,3.0013798E-3,3.5211816E-2,5.863461E-2],"split_indices":[5,3,5,3,0,3,3,5,5,5,0,3,0,5,5,0,0,0,0,0,0,0,0,0,0,0,0,0,0,0,0,0,0,0,0,0,0,0,0,0,0,0,0],"split_type":[0,0,0,0,0,0,0,0,0,0,0,0,0,0,0,0,0,0,0,0,0,0,0,0,0,0,0,0,0,0,0,0,0,0,0,0,0,0,0,0,0,0,0],"sum_hessian":[2.6366057E3,2.0474778E3,5.89128E2,1.9390295E3,1.0844833E2,4.2451334E2,1.6461462E2,1.2834402E3,6.555893E2,7.8750656E1,2.969768E1,3.9209967E2,3.241366E1,1.1405987E2,5.0554764E1,7.5781177E2,5.256285E2,4.0087408E2,2.5471516E2,4.146803E1,3.7282627E1,2.800624E2,1.1203726E2,2.2621046E1,9.792614E0,8.7050354E1,2.700951E1,3.9160023E1,1.1394741E1,5.442159E2,2.1359587E2,3.734807E2,1.5214775E2,2.75475E2,1.25399086E2,1.7450296E2,8.0212204E1,1.990361E2,8.1026306E1,6.222629E1,2.4824062E1,2.0173214E1,6.8362966E0],"tree_param":{"num_deleted":"0","num_feature":"6","num_nodes":"43","size_leaf_vector":"1"}},{"base_weights":[7.332267E-4,-4.9208343E-2,1.755894E-1,-5.3560782E-2,3.0425015E-1,1.067459E-1,3.5503477E-1,-7.3845915E-2,-2.3170626E-2,3.977631E-2,1.437175E-2,8.726788E-2,4.6764765E-2,2.9677433E-1,5.372789E-1,-5.280639E-3,-1.253429E-2,-1.5642567E-3,-4.0960787E-3,1.0771594E-2,3.8622983E-3,3.4946103E-2,1.6622168E-1,5.457455E-2,1.2329217E-2,1.38319945E-2,3.3690173E-2],"categories":[],"categories_nodes":[],"categories_segments":[],"categories_sizes":[],"default_left":[0,0,0,0,0,0,0,0,0,0,0,0,0,0,0,0,0,0,0,0,0,0,0,0,0,0,0],"id":45,"left_children":[1,3,5,7,9,11,13,15,17,-1,-1,19,-1,21,23,-1,-1,-1,-1,-1,-1,-1,25,-1,-1,-1,-1],"loss_changes":[2.2938662E1,3.159606E0,7.1713448E0,1.2430758E0,3.1818604E-1,2.934094E0,1.5540009E0,1.3048997E0,1.078046E-1,0E0,0E0,3.96456E-1,0E0,7.9840565E-1,6.541157E-2,0E0,0E0,0E0,0E0,0E0,0E0,0E0,1.3298547E-1,0E0,0E0,0E0,0E0],"parents":[2147483647,0,0,1,1,2,2,3,3,4,4,5,5,6,6,7,7,8,8,11,11,13,13,14,14,22,22],"right_children":[2,4,6,8,10,12,14,16,18,-1,-1,20,-1,22,24,-1,-1,-1,-1,-1,-1,-1,26,-1,-1,-1,-1],"split_conditions":[3E0,2E0,4E0,2E0,1E0,2E0,5E0,1E0,1E0,3.977631E-2,1.437175E-2,1E0,4.6764765E-2,1E0,6E0,-5.280639E-3,-1.253429E-2,-1.5642567E-3,-4.0960787E-3,1.0771594E-2,3.8622983E-3,3.4946103E-2,2E0,5.457455E-2,1.2329217E-2,1.38319945E-2,3.3690173E-2],"split_indices":[5,4,5,5,0,4,5,0,0,0,0,0,0,0,5,0,0,0,0,0,0,0,4,0,0,0,0],"split_type":[0,0,0,0,0,0,0,0,0,0,0,0,0,0,0,0,0,0,0,0,0,0,0,0,0,0,0],"sum_hessian":[2.6247979E3,2.0422257E3,5.82572E2,2.0182222E3,2.4003628E1,4.221939E2,1.6037813E2,1.2094777E3,8.0874445E2,1.4234199E1,9.769429E0,4.0175296E2,2.0440968E1,1.2351945E2,3.685868E1,8.6010144E2,3.4937625E2,5.695948E2,2.3914964E2,2.819992E2,1.1975374E2,8.680933E1,3.6710114E1,3.5808086E1,1.0505953E0,3.3108192E1,3.6019216E0],"tree_param":{"num_deleted":"0","num_feature":"6","num_nodes":"27","size_leaf_vector":"1"}},{"base_weights":[7.8862294E-4,1.13771595E-1,-1.3924588E-1,1.0204019E-1,6.584655E-1,-1.260548E-1,-3.3967742E-1,1.209501E-1,-3.6909275E-2,-2.4689058E-2,7.002737E-2,-1.2077103E-1,-1.7421116E-1,-7.15192E-2,2.9031504E-2,7.4272915E-3,2.1764277E-2,-1.5723674E-2,-4.394998E-3],"categories":[],"categories_nodes":[],"categories_segments":[],"categories_sizes":[],"default_left":[0,0,0,0,0,0,0,0,0,0,0,0,0,0,0,0,0,0,0],"id":46,"left_children":[1,3,5,7,9,11,13,15,-1,-1,-1,17,-1,-1,-1,-1,-1,-1,-1],"loss_changes":[4.143886E1,9.195686E0,3.0493984E0,1.269736E1,1.3227739E0,9.173237E0,1.7153185E1,6.1497555E0,0E0,0E0,0E0,3.0645428E0,0E0,0E0,0E0,0E0,0E0,0E0,0E0],"parents":[2147483647,0,0,1,1,2,2,3,3,4,4,5,5,6,6,7,7,11,11],"right_children":[2,4,6,8,10,12,14,16,-1,-1,-1,18,-1,-1,-1,-1,-1,-1,-1],"split_conditions":[1E0,2E0,2E0,2E0,2E0,2E0,2E0,1E0,-3.6909275E-2,-2.4689058E-2,7.002737E-2,1E0,-1.7421116E-1,-7.15192E-2,2.9031504E-2,7.4272915E-3,2.1764277E-2,-1.5723674E-2,-4.394998E-3],"split_indices":[1,4,3,3,3,4,4,3,0,0,0,3,0,0,0,0,0,0,0],"split_type":[0,0,0,0,0,0,0,0,0,0,0,0,0,0,0,0,0,0,0],"sum_hessian":[2.617145E3,1.4485831E3,1.1685618E3,1.4192042E3,2.937895E1,1.097932E3,7.062977E1,1.3651542E3,5.405007E1,1.0802745E0,2.8298676E1,1.0954252E3,2.506807E0,4.4167786E1,2.6461983E1,9.2189087E2,4.432633E2,7.421106E2,3.533146E2],"tree_param":{"num_deleted":"0","num_feature":"6","num_nodes":"19","size_leaf_vector":"1"}},{"base_weights":[6.3125073E-4,-4.4512894E-2,1.6005315E-1,1.771756E-2,-1.3371511E-1,9.680374E-2,3.2808903E-1,3.572583E-2,-2.2991078E-2,-1.6537787E-1,-8.972996E-2,1.5273291E-1,2.7866377E-2,2.7236256E-1,5.0609726E-1,2.2861967E-3,5.530994E-3,-5.2045654E-3,1.90681E-3,-1.4612997E-2,-2.1639949E-2,-8.210699E-3,-1.0848986E-2,2.0398326E-2,4.67609E-3,1.4681616E-3,6.328092E-3,3.4896687E-1,1.7455554E-1,5.1323958E-2,1.3665882E-2,4.2070385E-2,1.8737769E-2,2.0265033E-2,9.09556E-3],"categories":[],"categories_nodes":[],"categories_segments":[],"categories_sizes":[],"default_left":[0,0,0,0,0,0,0,0,0,0,0,0,0,0,0,0,0,0,0,0,0,0,0,0,0,0,0,0,0,0,0,0,0,0,0],"id":47,"left_children":[1,3,5,7,9,11,13,15,17,19,21,23,25,27,29,-1,-1,-1,-1,-1,-1,-1,-1,-1,-1,-1,-1,31,33,-1,-1,-1,-1,-1,-1],"loss_changes":[1.8762833E1,1.1280687E1,6.0829325E0,8.788337E-1,1.1481218E0,1.6128359E0,1.4187317E0,2.0802414E-1,4.506117E-1,4.4403458E-1,4.138708E-2,1.2468367E0,8.7359875E-2,8.5069084E-1,2.5502205E-2,0E0,0E0,0E0,0E0,0E0,0E0,0E0,0E0,0E0,0E0,0E0,0E0,7.0049E-1,1.1178148E-1,0E0,0E0,0E0,0E0,0E0,0E0],"parents":[2147483647,0,0,1,1,2,2,3,3,4,4,5,5,6,6,7,7,8,8,9,9,10,10,11,11,12,12,13,13,14,14,27,27,28,28],"right_children":[2,4,6,8,10,12,14,16,18,20,22,24,26,28,30,-1,-1,-1,-1,-1,-1,-1,-1,-1,-1,-1,-1,32,34,-1,-1,-1,-1,-1,-1],"split_conditions":[3E0,1E0,4E0,1E0,2E0,1E0,5E0,2E0,2E0,1E0,1E0,1E0,1E0,1E0,6E0,2.2861967E-3,5.530994E-3,-5.2045654E-3,1.90681E-3,-1.4612997E-2,-2.1639949E-2,-8.210699E-3,-1.0848986E-2,2.0398326E-2,4.67609E-3,1.4681616E-3,6.328092E-3,1E0,1E0,5.1323958E-2,1.3665882E-2,4.2070385E-2,1.8737769E-2,2.0265033E-2,9.09556E-3],"split_indices":[5,2,5,0,5,2,5,5,5,0,0,0,0,2,5,0,0,0,0,0,0,0,0,0,0,0,0,0,0,0,0,0,0,0,0],"split_type":[0,0,0,0,0,0,0,0,0,0,0,0,0,0,0,0,0,0,0,0,0,0,0,0,0,0,0,0,0,0,0,0,0,0,0],"sum_hessian":[2.6050576E3,2.0307288E3,5.7432886E2,1.1966836E3,8.3404517E2,4.184127E2,1.559162E2,8.297498E2,3.6693378E2,4.8334735E2,3.506978E2,2.303297E2,1.8808298E2,1.20669876E2,3.5246326E1,5.021071E2,3.2764273E2,2.1687714E2,1.5005664E2,3.5375677E2,1.2959058E2,2.5319171E2,9.750609E1,1.546249E2,7.57048E1,1.3808775E2,4.9995224E1,6.6229645E1,5.4440228E1,3.419598E1,1.0503491E0,4.4756573E1,2.1473072E1,3.968092E1,1.4759309E1],"tree_param":{"num_deleted":"0","num_feature":"6","num_nodes":"35","size_leaf_vector":"1"}},{"base_weights":[6.4492715E-4,-6.832219E-3,3.3208236E-1,1.2284555E-2,-4.924743E-1,-1.3540879E-1,4.6979595E-2,-2.6903637E-2,9.4174616E-2,-4.1941483E-2,-7.014334E-2,-1.3482104E-3,-6.061654E-3,1.1335189E-2,5.235338E-3],"categories":[],"categories_nodes":[],"categories_segments":[],"categories_sizes":[],"default_left":[0,0,0,0,0,0,0,0,0,0,0,0,0,0,0],"id":48,"left_children":[1,3,5,7,9,-1,-1,11,13,-1,-1,-1,-1,-1,-1],"loss_changes":[6.4334817E0,2.3576359E1,1.3935544E1,7.8445296E0,1.1741009E0,0E0,0E0,7.473656E-1,6.285701E-1,0E0,0E0,0E0,0E0,0E0,0E0],"parents":[2147483647,0,0,1,1,2,2,3,3,4,4,7,7,8,8],"right_children":[2,4,6,8,10,-1,-1,12,14,-1,-1,-1,-1,-1,-1],"split_conditions":[2E0,2E0,2E0,1E0,1E0,-1.3540879E-1,4.6979595E-2,1E0,1E0,-4.1941483E-2,-7.014334E-2,-1.3482104E-3,-6.061654E-3,1.1335189E-2,5.235338E-3],"split_indices":[4,3,3,3,0,0,0,0,0,0,0,0,0,0,0],"split_type":[0,0,0,0,0,0,0,0,0,0,0,0,0,0,0],"sum_hessian":[2.594108E3,2.5378345E3,5.627353E1,2.4426567E3,9.5177826E1,3.5820563E0,5.2691475E1,1.6525204E3,7.901362E2,7.274928E1,2.2428549E1,1.1829664E3,4.6955402E2,5.4055316E2,2.4958308E2],"tree_param":{"num_deleted":"0","num_feature":"6","num_nodes":"15","size_leaf_vector":"1"}},{"base_weights":[5.0056435E-4,1.0396556E-1,-1.2778106E-1,9.408164E-2,5.9485567E-1,-1.3125432E-1,1.2050219E-2,1.0745834E-2,6.103063E-3,7.0035234E-2,3.8749076E-2,-1.1878776E-2,-1.6052308E-2,-1.65773E-3,6.5016164E-3],"categories":[],"categories_nodes":[],"categories_segments":[],"categories_sizes":[],"default_left":[0,0,0,0,0,0,0,0,0,0,0,0,0,0,0],"id":49,"left_children":[1,3,5,7,9,11,13,-1,-1,-1,-1,-1,-1,-1,-1],"loss_changes":[3.4365417E1,6.8979216E0,5.6300163E-1,6.151085E-1,3.433447E-1,3.9252853E-1,4.4948317E-2,0E0,0E0,0E0,0E0,0E0,0E0,0E0,0E0],"parents":[2147483647,0,0,1,1,2,2,3,3,4,4,5,5,6,6],"right_children":[2,4,6,8,10,12,14,-1,-1,-1,-1,-1,-1,-1,-1],"split_conditions":[1E0,2E0,2E0,1E0,1E0,1E0,1E0,1.0745834E-2,6.103063E-3,7.0035234E-2,3.8749076E-2,-1.1878776E-2,-1.6052308E-2,-1.65773E-3,6.5016164E-3],"split_indices":[1,4,4,0,0,0,0,0,0,0,0,0,0,0,0],"split_type":[0,0,0,0,0,0,0,0,0,0,0,0,0,0,0],"sum_hessian":[2.5871882E3,1.4322238E3,1.1549645E3,1.4051238E3,2.7100073E1,1.1270315E3,2.7932928E1,9.986783E2,4.0644543E2,1.6386219E1,1.0713855E1,7.9392883E2,3.3310263E2,1.857848E1,9.354447E0],"tree_param":{"num_deleted":"0","num_feature":"6","num_nodes":"15","size_leaf_vector":"1"}},{"base_weights":[5.018083E-4,-4.0205315E-2,1.4534609E-1,1.7040858E-2,-1.2256788E-1,8.7420315E-2,3.0206105E-1,2.6421381E-2,-1.5487075E-1,-1.1361776E-1,-2.9105085E-1,1.1037847E-1,-2.0152792E-2,2.0801811E-1,5.23084E-1,-9.635864E-3,1.0343991E-1,-2.2169924E-3,-2.8639061E-2,-1.5349565E-1,-4.460551E-2,-1.7691083E-2,-3.8245317E-2,6.218639E-2,2.3271117E-1,1.6563861E-1,3.3977456E-2,6.9486104E-2,3.067816E-1,-2.3914005E-3,1.1677142E-3,5.818806E-3,1.7692707E-2,-1.9005781E-2,-1.0379693E-2,-8.222684E-3,1.2603988E-3,1.1992575E-2,-1.0710594E-3,2.9681534E-2,1.6018301E-2,2.0815562E-2,1.0790644E-2,3.5351064E-2,1.4381128E-2],"categories":[],"categories_nodes":[],"categories_segments":[],"categories_sizes":[],"default_left":[0,0,0,0,0,0,0,0,0,0,0,0,0,0,0,0,0,0,0,0,0,0,0,0,0,0,0,0,0,0,0,0,0,0,0,0,0,0,0,0,0,0,0,0,0],"id":50,"left_children":[1,3,5,7,9,11,13,15,17,19,21,23,-1,25,27,29,31,-1,-1,33,35,-1,-1,37,39,41,-1,-1,43,-1,-1,-1,-1,-1,-1,-1,-1,-1,-1,-1,-1,-1,-1,-1,-1],"loss_changes":[1.5226959E1,9.5071945E0,5.116745E0,1.923426E0,1.2136335E0,2.775695E0,3.0608454E0,3.1376097E0,1.0710036E0,2.1581888E0,3.6073804E-1,2.2562475E0,0E0,5.503168E-1,1.453515E0,2.3466504E-1,1.1876774E0,0E0,0E0,8.8551426E-1,6.24157E-1,0E0,0E0,1.1700338E0,4.5684862E-1,1.8408895E-1,0E0,0E0,1.1400199E-1,0E0,0E0,0E0,0E0,0E0,0E0,0E0,0E0,0E0,0E0,0E0,0E0,0E0,0E0,0E0,0E0],"parents":[2147483647,0,0,1,1,2,2,3,3,4,4,5,5,6,6,7,7,8,8,9,9,10,10,11,11,13,13,14,14,15,15,16,16,19,19,20,20,23,23,24,24,25,25,28,28],"right_children":[2,4,6,8,10,12,14,16,18,20,22,24,-1,26,28,30,32,-1,-1,34,36,-1,-1,38,40,42,-1,-1,44,-1,-1,-1,-1,-1,-1,-1,-1,-1,-1,-1,-1,-1,-1,-1,-1],"split_conditions":[3E0,1E0,4E0,2E0,2E0,2E0,1E0,1E0,2E0,1E0,2E0,1E0,-2.0152792E-2,5E0,1E0,2E0,2E0,-2.2169924E-3,-2.8639061E-2,2E0,2E0,-1.7691083E-2,-3.8245317E-2,1E0,1E0,1E0,3.3977456E-2,6.9486104E-2,2E0,-2.3914005E-3,1.1677142E-3,5.818806E-3,1.7692707E-2,-1.9005781E-2,-1.0379693E-2,-8.222684E-3,1.2603988E-3,1.1992575E-2,-1.0710594E-3,2.9681534E-2,1.6018301E-2,2.0815562E-2,1.0790644E-2,3.5351064E-2,1.4381128E-2],"split_indices":[5,2,5,3,3,3,3,3,5,3,5,3,0,5,2,5,5,0,0,5,5,0,0,2,2,2,0,0,3,0,0,0,0,0,0,0,0,0,0,0,0,0,0,0,0],"split_type":[0,0,0,0,0,0,0,0,0,0,0,0,0,0,0,0,0,0,0,0,0,0,0,0,0,0,0,0,0,0,0,0,0,0,0,0,0,0,0,0,0,0,0,0,0],"sum_hessian":[2.5805154E3,2.014954E3,5.6556146E2,1.1891957E3,8.2575836E2,4.1406903E2,1.5149245E2,1.1284661E3,6.0729538E1,7.8569525E2,4.0063168E1,3.841636E2,2.990542E1,1.0763573E2,4.3856716E1,7.692203E2,3.592458E2,3.0810722E1,2.9918814E1,4.9718106E2,2.8851416E2,1.912102E1,2.0942148E1,2.7667703E2,1.0748657E2,8.314824E1,2.448749E1,2.3211111E1,2.0645605E1,4.6055826E2,3.0866205E2,2.2344492E2,1.3580087E2,2.84821E2,2.1236005E2,1.7379086E2,1.14723305E2,1.5402985E2,1.2264721E2,5.5415253E1,5.207132E1,4.6383476E1,3.676476E1,1.513634E1,5.5092645E0],"tree_param":{"num_deleted":"0","num_feature":"6","num_nodes":"45","size_leaf_vector":"1"}},{"base_weights":[5.2753615E-4,9.483059E-2,-1.1642492E-1,1.8273704E-1,-2.0767456E-2,-1.0499247E-1,-3.0164343E-1,1.9483303E-1,-2.0888972E-3,-8.156237E-3,7.424278E-2,-1.3274354E-1,-4.6916295E-2,-1.4960594E-2,-5.2334856E-2,1.6342841E-2,2.6947757E-2,7.8107477E-3,4.7256444E-3,-1.4502972E-2,-1.1334321E-2,-6.732206E-4,-1.0228426E-2],"categories":[],"categories_nodes":[],"categories_segments":[],"categories_sizes":[],"default_left":[0,0,0,0,0,0,0,0,0,0,0,0,0,0,0,0,0,0,0,0,0,0,0],"id":51,"left_children":[1,3,5,7,9,11,13,15,-1,-1,17,19,21,-1,-1,-1,-1,-1,-1,-1,-1,-1,-1],"loss_changes":[2.8349163E1,1.4464079E1,2.3979988E0,1.9952564E0,3.5617456E0,1.7380085E0,2.1522088E0,1.7450066E0,0E0,0E0,2.1414876E-2,1.5798473E-1,7.8131783E-1,0E0,0E0,0E0,0E0,0E0,0E0,0E0,0E0,0E0,0E0],"parents":[2147483647,0,0,1,1,2,2,3,3,4,4,5,5,6,6,7,7,10,10,11,11,12,12],"right_children":[2,4,6,8,10,12,14,16,-1,-1,18,20,22,-1,-1,-1,-1,-1,-1,-1,-1,-1,-1],"split_conditions":[1E0,1E0,2E0,2E0,1E0,1E0,1E0,1E0,-2.0888972E-3,-8.156237E-3,2E0,1E0,1E0,-1.4960594E-2,-5.2334856E-2,1.6342841E-2,2.6947757E-2,7.8107477E-3,4.7256444E-3,-1.4502972E-2,-1.1334321E-2,-6.732206E-4,-1.0228426E-2],"split_indices":[1,2,3,3,3,3,2,3,0,0,3,2,2,0,0,0,0,0,0,0,0,0,0],"split_type":[0,0,0,0,0,0,0,0,0,0,0,0,0,0,0,0,0,0,0,0,0,0,0],"sum_hessian":[2.5684255E3,1.4220022E3,1.1464232E3,8.074196E2,6.145825E2,1.0812509E3,6.517238E1,7.6218665E2,4.523297E1,3.7485974E2,2.3972278E2,7.307733E2,3.504776E2,3.9653923E1,2.5518452E1,5.387233E2,2.2346336E2,2.0803578E2,3.1686996E1,4.4345715E2,2.8731616E2,2.0373535E2,1.4674223E2],"tree_param":{"num_deleted":"0","num_feature":"6","num_nodes":"23","size_leaf_vector":"1"}},{"base_weights":[4.6966E-4,4.5909833E-2,-6.2626585E-2,3.8698856E-2,3.627623E-1,-6.849284E-2,2.0594941E-1,5.669848E-2,-4.1247454E-2,-1.7029431E-1,5.461494E-2,-5.4166246E-2,-4.5942646E-2,-4.325529E-2,2.6786124E-2,2.698554E-3,1.2505461E-2,-8.655275E-3,6.2204304E-4],"categories":[],"categories_nodes":[],"categories_segments":[],"categories_sizes":[],"default_left":[0,0,0,0,0,0,0,0,0,0,0,0,0,0,0,0,0,0,0],"id":52,"left_children":[1,3,5,7,9,11,13,15,-1,-1,-1,17,-1,-1,-1,-1,-1,-1,-1],"loss_changes":[7.337914E0,3.3853948E0,1.7023015E0,1.1846271E1,1.3426527E1,5.852276E0,1.03113E0,2.8418899E0,0E0,0E0,0E0,1.9824402E0,0E0,0E0,0E0,0E0,0E0,0E0,0E0],"parents":[2147483647,0,0,1,1,2,2,3,3,4,4,5,5,6,6,7,7,11,11],"right_children":[2,4,6,8,10,12,14,16,-1,-1,-1,18,-1,-1,-1,-1,-1,-1,-1],"split_conditions":[1E0,2E0,2E0,2E0,1E0,2E0,2E0,1E0,-4.1247454E-2,-1.7029431E-1,5.461494E-2,1E0,-4.5942646E-2,-4.325529E-2,2.6786124E-2,2.698554E-3,1.2505461E-2,-8.655275E-3,6.2204304E-4],"split_indices":[2,4,4,3,3,3,3,3,0,0,0,3,0,0,0,0,0,0,0],"split_type":[0,0,0,0,0,0,0,0,0,0,0,0,0,0,0,0,0,0,0],"sum_hessian":[2.5573438E3,1.4868372E3,1.0705066E3,1.4548496E3,3.1987549E1,1.0483534E3,2.2153208E1,1.3998757E3,5.4973896E1,1.9325782E0,3.005497E1,1.01239075E3,3.5962646E1,1.4290185E0,2.072419E1,9.767139E2,4.2316177E2,6.5868976E2,3.5370096E2],"tree_param":{"num_deleted":"0","num_feature":"6","num_nodes":"19","size_leaf_vector":"1"}},{"base_weights":[3.3956498E-4,8.630848E-2,-1.0600584E-1,6.528351E-2,4.6391755E-1,-1.4252463E-1,1.2167662E-2,5.8296487E-2,5.0607604E-1,4.1246358E-1,6.1031442E-2,-1.670873E-2,-1.0739378E-1,-5.6041754E-3,2.7100155E-1,4.1268323E-2,1.494202E-2,3.2329924E-2,6.9048084E-2,3.8695365E-2,6.2177427E-2,-1.1247694E-2,4.6519553E-3,-2.1313615E-2,4.6434257E-2,2.8878096E-2,7.3889145E-3,3.0702346E-3,5.718041E-3,-2.4432305E-3,3.5727627E-3,6.271846E-3,-1.0888453E-2],"categories":[],"categories_nodes":[],"categories_segments":[],"categories_sizes":[],"default_left":[0,0,0,0,0,0,0,0,0,0,0,0,0,0,0,0,0,0,0,0,0,0,0,0,0,0,0,0,0,0,0,0,0],"id":53,"left_children":[1,3,5,7,9,11,13,15,17,19,-1,-1,21,23,25,27,-1,-1,-1,-1,-1,-1,-1,29,31,-1,-1,-1,-1,-1,-1,-1,-1],"loss_changes":[2.332331E1,1.116962E1,4.9232273E0,4.0896597E0,3.0749798E-1,7.338791E-1,1.2441586E0,2.038509E0,4.757824E-1,6.918812E-2,0E0,0E0,2.8790665E-1,2.0844123E-1,3.956008E-2,1.8514037E-1,0E0,0E0,0E0,0E0,0E0,0E0,0E0,3.567023E-2,1.5645368E-1,0E0,0E0,0E0,0E0,0E0,0E0,0E0,0E0],"parents":[2147483647,0,0,1,1,2,2,3,3,4,4,5,5,6,6,7,7,8,8,9,9,12,12,13,13,14,14,15,15,23,23,24,24],"right_children":[2,4,6,8,10,12,14,16,18,20,-1,-1,22,24,26,28,-1,-1,-1,-1,-1,-1,-1,30,32,-1,-1,-1,-1,-1,-1,-1,-1],"split_conditions":[1E0,4E0,3E0,2E0,5E0,2E0,5E0,3E0,3E0,2E0,6.1031442E-2,-1.670873E-2,2E0,4E0,2E0,2E0,1.494202E-2,3.2329924E-2,6.9048084E-2,3.8695365E-2,6.2177427E-2,-1.1247694E-2,4.6519553E-3,2E0,2E0,2.8878096E-2,7.3889145E-3,3.0702346E-3,5.718041E-3,-2.4432305E-3,3.5727627E-3,6.271846E-3,-1.0888453E-2],"split_indices":[1,5,5,4,5,5,5,5,5,4,0,0,4,5,4,5,0,0,0,0,0,0,0,4,4,0,0,0,0,0,0,0,0],"split_type":[0,0,0,0,0,0,0,0,0,0,0,0,0,0,0,0,0,0,0,0,0,0,0,0,0,0,0,0,0,0,0,0,0],"sum_hessian":[2.549114E3,1.4097058E3,1.1394083E3,1.3364653E3,7.324044E1,8.702665E2,2.6914185E2,1.3167261E3,1.9739235E1,5.7017864E1,1.622258E1,5.0995905E2,3.6030743E2,2.5276503E2,1.6376797E1,1.110636E3,2.0609012E2,1.12960825E1,8.443151E0,5.3362923E1,3.654942E0,3.4904895E2,1.1258499E1,1.9460716E2,5.815788E1,1.4595256E1,1.7815396E0,6.692012E2,4.414348E2,1.8506076E2,9.54639E0,5.3178627E1,4.9792504E0],"tree_param":{"num_deleted":"0","num_feature":"6","num_nodes":"33","size_leaf_vector":"1"}},{"base_weights":[4.4949996E-4,7.822702E-2,-9.5774114E-2,1.5469715E-1,-2.1248326E-2,-1.2890196E-1,1.1106234E-2,1.323842E-1,5.734492E-2,-6.716352E-2,1.4418566E-1,-1.5135327E-1,-9.690836E-3,-5.0564343E-3,2.5046894E-2,1.1981009E-1,2.0269431E-2,-8.844411E-3,-3.7240337E-3,1.2797818E-1,4.0678795E-2,-1.4081846E-2,-1.6815608E-2,-1.9173685E-2,4.180664E-2,1.1042426E-2,1.3386169E-2,1.0722154E-2,2.0256635E-2,1.7008999E-3,-6.5468936E-3,1.7679451E-3,6.768842E-3],"categories":[],"categories_nodes":[],"categories_segments":[],"categories_sizes":[],"default_left":[0,0,0,0,0,0,0,0,0,0,0,0,0,0,0,0,0,0,0,0,0,0,0,0,0,0,0,0,0,0,0,0,0],"id":54,"left_children":[1,3,5,7,9,11,13,15,-1,17,19,21,-1,23,-1,25,-1,-1,-1,27,-1,-1,-1,29,31,-1,-1,-1,-1,-1,-1,-1,-1],"loss_changes":[1.9023005E1,1.0695784E1,4.024312E0,7.35067E0,4.6568837E0,6.0840225E-1,1.0448813E0,